<?xml version="1.0"?>
<opencv_storage>
<opencv_ml_svm>
  <format>3</format>
  <svmType>C_SVC</svmType>
  <kernel>
    <type>RBF</type>
    <gamma>0.0022500000000000003</gamma></kernel>
  <C>62.5</C>
  <term_criteria><epsilon>1.1920928955078125e-07</epsilon>
    <iterations>1000</iterations></term_criteria>
  <var_count>300</var_count>
  <class_count>8</class_count>
  <class_labels type_id="opencv-matrix">
    <rows>8</rows>
    <cols>1</cols>
    <dt>i</dt>
    <data>
      0 1 2 3 4 5 6 7</data></class_labels>
  <sv_total>645</sv_total>
  <support_vectors>
    <_>
      -1.99310482 -1.25567758 3.09316492 0.44317764 1.89647734
      0.621759772 0.637654126 2.25185537 -0.299327135 0.602750242
      0.576139092 -0.961410701 0.346231967 1.04721594 -0.723917961
      -0.91201818 1.07637048 0.285839915 0.0100035984 1.20135069
      -0.0688057467 -0.551585257 -1.07577515 0.00647940207 -0.431477129
      -0.412881494 0.26770398 -0.66434437 0.386541486 -0.153737143
      0.582240224 0.182879224 -0.524412215 0.273614168 0.799478054
      -0.259439617 0.151981249 -0.194986239 0.694302738 0.171576783
      0.643562615 0.921471715 0.0892305002 -0.209512696 -0.201120272
      -0.353345931 -0.148270607 0.821140349 -0.189724356 0.361573935
      0.28181076 -0.0281831697 -0.140621379 -0.228923708 -0.288814813
      0.241765738 0.367315829 0.485893071 -0.16886583 -0.154626787
      0.0260139871 0.180324763 0.0781734586 -0.335103035 0.114501931
      0.0251214299 -0.241542488 0.0368389226 -0.0236974563 -0.0781564787
      -0.0792359933 -0.680019677 0.0220076647 -0.0770497546 -0.310252666
      -0.095936209 0.221151039 -0.185108632 -0.0276025739 -0.0437817834
      -0.182645351 -0.3176651 0.236907661 -0.54741019 -0.575988829
      -0.152651787 -0.158512384 0.374405056 -0.336864233 0.217133746
      0.193738103 -0.0552552529 0.0382191762 0.379821628 0.234058097
      -0.128393769 -0.055197265 0.399453282 0.282798678 -0.246760309
      0.116561562 0.0778849199 0.0453753173 -0.185646862 -0.00583109958
      0.195419282 -0.213770688 -0.286967307 -0.294688404 0.541587591
      0.198464841 -0.0553067662 0.169033691 -0.0325622372 -0.112069115
      0.17369324 -0.297241867 0.0014493285 -0.155370876 0.400833428
      -0.567838788 0.0444168821 -0.0797587857 -0.0940686688 -0.248061165
      0.122021392 0.419290066 0.254148334 0.245330468 0.174143672
      0.188889295 -0.098199591 -0.0437826104 0.149609908 0.521420181
      0.19551228 -0.210137278 0.0327238701 -0.445637047 -0.246051282
      -0.0562045611 -0.165911674 0.0562860295 0.202284396 -0.324831754
      -0.17623131 0.209066331 0.38216725 0.0226188749 -0.486509055
      -0.0974278674 0.239726201 -0.217815101 0.112053514 0.212995827
      -0.103243068 -0.157108068 -0.164488524 -0.102525383 -0.0841752738
      0.14743726 -0.154363319 0.113107726 0.04716653 -0.035387706
      -0.2086505 0.479981691 -0.332061857 0.016928019 0.052281253
      0.0249975733 0.0390251838 -0.0251537766 0.214069307 0.0164821073
      0.220195204 0.0604749694 0.388807148 -0.27022177 0.46875155
      0.256762534 0.18919903 0.0698128566 0.172677159 -0.0803275183
      -0.158746243 -0.105503917 0.0710029751 -0.0891198665 -0.434180409
      0.194982648 0.0802105665 -0.0611826964 -0.156353667 -0.379372358
      0.0617800914 0.0663821995 -0.0821673125 0.145303354 0.0393884033
      -0.463427752 -0.151456714 -0.196391359 0.132033601 -0.173150182
      -0.0837148204 0.0354146138 0.110034205 -0.289640903 -0.147997975
      -0.0900660157 -0.211804137 0.0724097341 0.0627842247 0.190259069
      0.226491407 -0.0164123029 0.0522335693 0.118778825 0.151496872
      0.137999386 0.0440810136 0.317012072 -0.010098801 -0.012326641
      0.081650041 -0.0458832942 -0.0566757023 0.263649464 0.0224565715
      0.22597073 -0.0723069683 -0.0417729765 0.114086412 0.237302616
      -0.0748933628 0.095914863 -0.234037429 -0.294384092 -0.199060068
      -0.0402036756 0.183177844 -0.080064103 -0.245023742 0.135058254
      0.203246042 0.0211484004 0.0809914097 0.23933515 -0.174516156
      0.167030513 0.121373415 0.233405903 -0.260842085 0.346305728
      -0.21343337 -0.0914222896 -0.118668914 0.17967011 0.0955391005
      -0.141372815 -0.129627183 0.110871755 -0.162598804 -0.0946496353
      0.171972081 0.238605365 0.0110864695 0.0657903999 0.0840899795
      -0.140287936 -0.235077932 0.18943122 -0.128484741 -0.0364375822
      -0.292660922 -0.013987584 -0.00623896951 -0.0414554924
      -0.0917240828 -0.0914136991 0.118635878 -0.20862937 0.00213787286
      0.236138731 -0.0417887941 -0.0301586911 -0.0686321855 0.143447369
      0.303214908 -0.148865342 0.22127302 0.123394065 0.0637022257
      -0.205504894 0.0678579584 -0.20359911 -0.162686557 -0.122257404
      -0.185381994</_>
    <_>
      -1.70548332 1.39567041 -1.48423374 -0.727966189 1.07417881
      1.25086677 1.77319694 -0.401642233 -0.896079719 0.142467886
      -0.465891808 0.612768054 -1.65100491 -0.380295843 -0.42244184
      1.25372493 0.737490118 0.0728621259 -0.0118508739 0.985411525
      0.182922125 0.24491027 -0.159166634 -0.808989584 -0.472738445
      0.0930192173 -0.41289255 -0.639401197 -0.366055757 -0.348308086
      -0.531662583 -0.287210226 0.616932988 -0.0267917961 0.136480749
      -0.315861404 -0.444548547 0.359642327 -0.106389388 -0.309283108
      0.750832856 -0.461358935 -0.172902912 0.0597408339 0.18363522
      0.279095948 -0.32799679 0.0270905048 0.317944646 -0.11833106
      -0.457658499 0.285661519 -0.670922697 -0.538229108 0.427178353
      0.0769304484 -0.218256354 -0.0277236961 0.207403496 -0.390457809
      -0.269828379 0.437635899 -0.0601610057 0.145997882 -0.857764602
      0.437249213 0.386515379 -0.307432055 0.3771981 -0.700119197
      -0.50240612 -0.601867795 0.0244637281 -0.157060042 0.143391222
      -0.336510509 0.0973320976 0.141941145 -0.308574021 0.135683939
      0.11105153 0.429338992 -0.115958765 0.0148561532 0.0774133354
      -0.393226653 -0.418942302 -0.156772584 -0.0756460577 0.110892624
      0.621233881 0.0436338261 -0.0945805311 -0.217071399 0.0214983504
      0.559987605 -0.365086854 0.205685422 0.186947793 0.031022178
      0.385156661 -0.116000757 0.126710936 -0.116469964 -0.0995369703
      -0.0108456574 -0.260446161 -0.159148052 -0.0749295056 -0.207550779
      -0.0594276004 0.427394211 0.0104601355 0.138520434 0.0643764362
      0.225535825 -0.489398897 -0.233897611 -0.0491715856 0.0433072746
      0.291795492 -0.117399827 -0.261499941 0.125489518 0.0689769909
      -0.254231453 -0.0740014836 0.223626733 -0.136819184 0.318080723
      -0.0481934883 -0.302679002 0.32537806 -0.171038732 0.0167937409
      -0.182993278 0.155351758 -0.468855232 -0.0820845887 -0.326017618
      -0.124537677 -0.0237799417 0.35573563 0.239159495 -0.104889609
      0.306402743 0.210967064 -0.249668449 0.295900345 -0.124567963
      -0.261363059 -0.19473958 0.113459036 -0.07688535 -0.0949807391
      0.122995332 -0.318430096 0.25885132 -0.0568778105 -0.152689308
      -0.213733807 -0.154773772 -0.171556234 -0.0463284664 -0.103585877
      -0.0508871563 -0.142313391 0.297310352 -0.295445681 0.0353185609
      0.12915732 -0.272093743 -0.140678152 0.152076066 0.449270576
      -0.0457821861 0.0276531428 0.195372909 -0.0667288303 -0.248324573
      0.19372794 -0.12803264 0.189059973 -0.109179005 -0.0343811363
      0.441033214 0.189551786 0.0924285352 0.111031681 0.0752590597
      -0.278826416 -0.0141684143 -0.113805696 -0.0537155084 0.224113017
      -0.0503276363 0.063835524 0.0529975593 -0.00213616807 -0.311166406
      -0.485358357 0.0140675902 0.20237878 0.0814261809 -0.0482779332
      -0.261033893 -0.0968462452 0.0752102211 0.315346032 0.179120466
      -0.133352116 -0.136817679 0.0288768113 -0.282431364 -0.0229742266
      -0.178712502 -0.125029802 -0.0551480614 -0.59259367 -0.291909963
      -0.0471314415 0.0547409393 -0.190353617 -0.150359705 -0.151239097
      0.144895971 0.0809021592 -0.0488356426 0.128737867 -0.0780072287
      0.200550094 -0.163428098 -0.0792054161 0.00180869258 -0.0587015562
      -0.0362691991 0.307221115 -0.134644568 0.0661024824 0.0212883297
      0.317989796 -0.0788665637 -0.10548225 -0.181111574 0.158069775
      -0.210230112 0.226246461 -0.151302725 -0.0565529317 0.0968436822
      0.0373590998 -0.129418418 -0.126247153 -0.150481254 -0.0438458137
      -0.0095226625 0.0739189759 0.197545022 0.0564857423 -0.123108059
      0.0264186468 -0.0402251668 0.0284266826 0.00870346185 0.0683720037
      -0.117001884 0.1178075 -0.0807696208 -0.280366689 7.55273504e-05
      -0.273455948 0.125661895 -0.329770744 0.221335039 0.00312119117
      0.229282781 0.124986425 -0.193940848 0.00722965924 0.0872657225
      0.0369801372 -0.0412593298 -0.226249844 -3.65867963e-05
      -0.184123129 0.0191085562 0.198762953 -0.1212501 -0.00658525433
      0.209964767 -0.0860091597 0.0457437001 -0.0308424681 0.0500890985
      -0.145272717 -0.191451162 0.154650375 0.0680225492 -0.109174594
      0.0265593491</_>
    <_>
      -0.556865513 2.96025658 2.04915571 1.67079425 -0.915438175
      1.26932621 2.06651497 0.553987205 0.745910823 0.29550904
      0.40117991 0.991543829 -0.299995929 1.19294715 0.917675495
      1.31488431 1.06436896 0.701465428 0.713689506 0.271117359
      -0.343472272 1.16707516 -1.29386234 0.285317749 0.225953028
      0.399892509 0.190724671 -0.355607033 0.326455563 0.501952112
      0.588664651 0.353315026 0.54889816 0.394706517 0.754736781
      0.334600419 -0.608151197 0.115758985 0.134201184 -0.34307909
      0.226344571 -0.115009174 -0.407986611 -0.0590192564 0.633003354
      0.458843917 -0.152016312 -0.276578784 0.714860082 0.0463071764
      0.265471756 -0.320088565 -0.349900335 0.352681845 -0.175036177
      0.182074845 -0.20507504 -0.199995145 0.348605543 0.0820095539
      -0.141406447 -0.243526936 0.226092681 -0.0433807336 -0.458121598
      -0.31895709 -0.126747623 0.254605293 -0.40659526 0.0840620026
      -0.099203527 -0.519410789 0.082594566 -0.352927059 0.657574713
      0.0676288977 0.114588879 -0.0475137569 -0.343808234 0.175810486
      -0.151510343 -0.194493726 0.437036902 -0.0828191563 0.00522738043
      -0.000169252118 -0.333020717 -0.0858627632 -0.187724933
      -0.0664869696 0.283720881 0.197126985 -0.0147062661 -0.264642298
      0.0439438187 -0.289860725 -0.107308052 0.10354346 0.193229109
      0.143763602 -0.158510059 -0.0690283999 -0.18809922 -0.143278062
      0.349452168 0.0799512416 0.541102469 0.213383138 0.150676832
      0.159292519 -0.0317732356 -0.225908577 -0.105989628 0.715500474
      0.334554404 0.258238822 -0.113466486 0.0180912632 0.0878579542
      0.0769628286 0.0288835336 0.15642862 0.263916194 0.148285031
      -0.0130333472 0.0202097688 0.328846157 0.272925287 -0.106025726
      -0.0545785576 -0.146060973 0.089455381 0.145838365 0.319466621
      0.00761933578 0.276596516 0.356028825 -0.340821713 -0.178067222
      -0.041550193 -0.0858696476 0.161074758 -0.178374574 -0.0975458473
      0.433814734 -0.317222685 0.0273829643 0.135276124 -0.148941159
      -0.225004926 -0.261540323 -0.0623948537 -0.164574355 -0.0236378554
      -0.200769916 -0.239480898 -0.0123403911 0.0271855518 -0.252155811
      -0.202117532 -0.0861445442 -0.0680915564 0.112763584 0.146754622
      -0.167439088 -0.102422833 0.375156552 0.116266996 -0.0512198918
      0.0374303535 0.00513031287 -0.0809182972 -0.0780052841
      -0.207771644 -0.319309711 0.256181806 -0.0696315095 -0.120794505
      -0.182315364 0.166841105 -0.0737394989 0.0642062426 0.0219067298
      -0.060714487 0.00599880191 0.108082883 -0.246666566 0.0162514728
      -0.0583630204 0.240223855 -0.112164967 -0.0424831584 0.159976959
      0.204115734 -0.168010846 0.00567358593 0.0255082548 0.0402646773
      -0.156963393 0.15283455 0.119422771 0.0707524642 -0.0899071395
      0.000823755865 0.151176617 0.0174872242 -0.126107574 -0.0291610137
      0.222797215 0.218689114 0.217153147 -0.12294475 0.179635644
      -0.291812778 0.0227908995 0.217022985 0.10852389 -0.122260883
      -0.194572091 0.0895439535 -0.153047189 0.128237218 0.0709792748
      0.433661968 0.066860497 0.0951905102 0.109686434 -0.227110833
      0.0589035377 0.0200963076 -0.0179099776 0.0119021153 -0.119407192
      -0.022749057 0.0678103194 0.206501424 0.163061172 0.0398512185
      0.152731881 -0.0742071792 0.191582635 0.0959245712 -0.0382946506
      0.173935786 0.0690453425 0.0138050206 -0.0105515448 0.0127161359
      -0.0970999748 0.0680310875 -0.00631307764 -0.0387511365
      0.131483614 -0.063572228 0.139298886 0.0342879482 0.321733683
      -0.0678784773 0.0048299958 -0.00416304357 -0.519324005
      -0.193929523 -0.203085303 0.0627059639 -0.0885630995 0.0337148383
      0.0958196968 -0.0354722552 -0.0518931374 0.161238998 0.103856608
      -0.00858402345 0.229446292 -0.186860844 -0.340965599 0.385423809
      0.10044346 -0.13071394 -0.145334587 0.0296063907 -0.06552127
      0.100539416 0.243388593 -0.108911313 -0.026057234 0.00134470197
      -0.0572414622 -0.228877932 -0.0856582075 0.128206655 -0.111769021
      -0.120575435 0.0493062772 -0.0864607766 0.129457965 -0.215623245
      0.0154063059 0.121298507 -0.2371988 -0.0398267284</_>
    <_>
      -2.09087396 0.870688438 1.46188557 -0.409342945 0.511505127
      -0.710735619 -0.224138573 0.922588348 -0.162198484 -1.1531769
      1.75468111 -1.15293789 -1.41075432 0.755431652 -0.509025156
      -0.868893325 0.20474045 0.316760629 -0.980919123 -1.14919066
      -0.274402261 0.525208175 0.271199226 -0.107906863 0.237007201
      -0.303206354 -0.988052905 -0.00010845108 0.0663821846
      -0.0911098719 -1.00108099 -1.04209793 0.118899234 0.130962759
      -0.893654168 -1.0011791 0.835274696 -0.954723001 0.531950593
      0.0303578954 -0.331287891 -0.00759747718 0.178739309 -1.01149917
      -0.597887099 0.962547541 0.267705321 -0.120162636 -0.687186837
      0.400225222 -0.0747447684 -0.0334089585 0.0336117409 -0.726027071
      0.721352696 0.183754966 -0.296341509 -0.403634608 -0.522914648
      -0.0300504286 -0.0861016139 -1.25491679 0.0839283243 -0.230618939
      -0.963481724 0.123807512 -0.236078963 -0.251564771 0.549545228
      0.12817961 -0.369464785 -0.521162152 0.270073891 0.305388838
      0.466426969 0.247357145 -0.379187137 -0.856660903 0.311795622
      0.0177908875 0.321819633 -0.0797702968 0.112559594 0.0978901982
      0.0467296429 -0.73119539 -0.170479834 -0.693492889 -0.0649882331
      -0.184595272 0.0195951052 0.387920707 -0.257430464 -0.00996349752
      0.222005382 0.308229268 -0.322772086 -0.0355927385 -0.00078891759
      0.173848584 0.356363356 -0.0815210789 0.0406517051 -0.470760286
      -0.292054743 -0.0454992503 -0.275446057 -0.0549203232 0.193282291
      0.318810314 -0.783985019 0.449032784 0.334964782 -0.0795120597
      -0.0557903871 -0.346787512 -0.00583394524 -0.129353821 0.429192483
      -0.31293726 0.0435655154 0.152224436 0.0552365147 0.049679596
      0.043897137 0.790774286 -0.00463675288 -0.522631168 -0.125237435
      -0.319055766 -0.0752239674 0.254998088 -0.180775657 -0.160008699
      0.159687698 0.064985171 -0.00602343911 -0.467064679 -0.271340758
      0.11419148 -0.144152328 0.00658432534 0.0381712466 -0.0750797465
      0.0650097877 0.0373773836 -0.00655047363 0.173753992 0.19674699
      -0.123366386 -0.371553063 0.0949494168 -0.086732164 -0.0442144349
      -0.00859715044 0.215568215 -0.136615977 -0.112029284 -0.573955476
      0.251690656 0.0989800841 -0.0573038459 -0.0974985436 0.324013799
      -0.264712185 0.0923606381 0.143439978 0.187311515 -0.0831668377
      0.115012161 0.344414264 0.163574457 -0.0935887992 0.187352121
      0.139265701 -0.081153959 0.129923433 0.193727821 0.119528018
      0.0751060471 -0.0149480337 -0.119250096 -0.0136250854 0.133427799
      0.196771458 0.0339540467 0.263252527 -0.0247835051 -0.124378592
      -0.429051161 0.4384996 -0.0509740971 -0.280389905 -0.271030158
      -0.146705717 0.081012629 0.0239617266 0.15521729 -0.240323171
      -0.020104887 0.171993598 0.228705809 0.0727408826 0.0953521207
      0.0417261086 -0.0503731221 -0.059544161 -0.0580301806
      -0.0875766873 0.175568819 -0.0107014105 -0.152910456 0.166605532
      -0.209912315 0.00369468564 0.0893764272 0.0861405432 0.109302394
      0.0366544537 0.0321007073 -0.13582693 0.0382533148 -0.0314275585
      0.0420874096 0.221321315 -0.0442207344 -0.246950611 0.225318655
      -0.0157889649 -0.0822574347 0.0672726184 -0.149334192 -0.010304668
      -0.125238553 0.147935197 0.182606146 0.00923088286 -0.0760489926
      0.0954260454 0.125653461 0.206483692 0.198152438 0.307843626
      0.0656285137 -0.294966757 -0.147798598 0.243963182 -0.0436040573
      0.125676021 -0.017505426 0.0915098041 0.0451362021 -0.139284357
      -0.103694737 -0.0570404641 0.00290943845 0.105845064 -0.0853515118
      0.245803863 -0.3524822 -0.00624442613 0.0140667353 0.079062663
      -0.0559252948 -0.15495953 0.0214711111 -0.0448094122 -0.143069476
      0.229127869 0.0840412751 0.140518755 -0.0197661947 0.0420162305
      -0.107163742 -0.0219449755 -0.0262587089 0.00728005078
      -0.0485975035 -0.102733344 0.24813582 0.295231909 0.17960842
      0.069119066 -0.0748118833 0.00981732085 0.0469409712 0.0306112189
      0.160110891 0.0400406234 0.0467729531 -0.128785849 -0.0825048462
      -0.0697139129 -0.107289501 0.0259747282 -0.00546696829
      -0.250523567 -0.203375593 -0.126326829 -0.111843057</_>
    <_>
      -3.14363241 -0.996508837 0.620207429 -0.162743837 -1.27252269
      -0.479234964 0.477127492 -0.88818574 -1.03172183 -0.0225200709
      0.0362503976 0.106866837 0.575544536 1.0642792 -1.43208516
      0.501560807 -0.308894515 -0.12136618 0.660869539 -0.00406277366
      0.00671773637 -0.683228612 0.676946521 -0.0463189296 -0.11596141
      -1.06585431 -0.139925778 0.110833362 0.48703894 -0.253822386
      0.597197771 -0.514537215 -0.0480660722 -0.752993047 0.271793365
      -0.582137764 0.567697525 -0.300056517 0.184688583 0.642173648
      0.493942082 0.36216259 -0.535708964 -0.0472555421 0.591294169
      0.347151369 -0.454264045 -0.377336562 0.0290942676 -0.713649929
      -0.202040002 -0.373464674 -0.518576801 0.182501465 0.0906959996
      -0.039474491 0.209859267 -0.0999494717 0.301376998 0.427216679
      0.106355943 -0.235948071 -0.119881406 -0.346459448 0.327136666
      -0.222804517 -0.165403962 0.105913587 0.541953087 0.238775641
      0.191576943 0.0197377075 0.281618327 -0.146497816 -0.358617634
      0.214762375 -0.149014682 0.175711781 0.370966405 -0.109680817
      -0.0515616946 0.165213004 -0.370819509 0.370305508 -0.226205155
      -0.0603733473 0.266004741 0.257970482 -0.165197685 0.0600641742
      -0.130931064 0.103931643 -0.156932563 -0.250116348 -0.0934455916
      0.29888019 0.00703892345 0.428775817 0.158603832 -0.0675774366
      0.0184463616 -0.211991087 0.0803594068 -0.0208324753 0.0270638112
      -0.134470329 0.145863935 -0.155149132 0.230588242 -0.101115622
      0.254795909 0.00213231007 -0.0302008316 0.0169308074 0.0340846479
      0.386401862 -0.255222976 -0.040671356 -0.181289703 0.0884709209
      0.0942232907 -0.0147111313 -0.0502813347 -0.496666759 0.312961221
      0.0709155649 -0.14373599 0.0652194843 -0.0916240066 -0.00888294727
      -0.0322859176 0.0666394606 -0.199495092 0.0648219958 0.0363904126
      -0.000195097804 0.130641103 0.00827184971 -0.00691717723
      -0.239764512 -0.114067405 -0.147024319 -0.112301171 0.05151885
      0.0587644316 -0.128476068 0.258882254 0.256928176 0.00267398218
      -0.237973228 0.0985030606 -0.125617251 -0.255653232 0.0576959811
      -0.00562699977 0.108526334 0.0030844612 0.089543432 0.0654134825
      -0.179950014 0.334798336 -0.329023361 0.195695937 0.260461241
      0.0771998838 -0.107168667 0.116099268 0.127989694 0.130181447
      0.208536729 0.0329703018 0.127079964 0.26355648 -0.0420009904
      -0.0686184317 -0.0771214813 -0.152608335 -0.142748058
      -0.00541155459 0.0998559967 -0.217331514 -0.156353176 -0.23364605
      -0.0298323072 0.136222586 -0.0569322184 -0.0030217052 0.0285627712
      -0.0708856806 0.124307998 0.116249003 0.0279874504 0.0704786554
      0.116018601 0.0510772727 0.021262249 -0.00716300402 0.0735219046
      -0.117139474 -0.0395015515 -0.0811015666 -0.326821983 0.0565364026
      -0.126789823 -0.105873041 0.0747461766 -0.127932549 -0.069507435
      -0.0621710569 -0.0455331765 0.00576254167 0.0122833895
      -0.0964715928 0.124915794 -0.22166419 0.248407155 0.117600262
      -0.127293259 -0.0641202629 -0.0527729318 0.101246558 -0.153227806
      -0.14032948 -0.00239045615 -0.0954684019 -0.10058035 -0.0949528217
      0.101125419 0.00558364997 0.0871206596 0.0291631296 -0.0380369611
      -0.0860648304 0.0756840855 -0.118524507 0.0965852737 -0.172975957
      -0.00796256214 0.0904011503 0.0238031317 0.0533920452 0.105320826
      0.0254062824 0.0365323648 0.264005274 0.0154814161 -0.0739942417
      -0.0705449134 -0.169170514 0.14313367 0.00682322308 0.0483864062
      0.0166353993 0.0576226041 -0.0597502887 -0.000939282414
      0.0350369029 0.0442078933 -0.0666143671 -0.0383767858 0.0371286422
      0.24774231 0.0270156004 0.088936232 -0.124822251 0.151918054
      -0.0070082196 -0.0787088126 -0.167589128 -0.00322084571
      0.193067983 0.329687953 -0.0631012395 -0.0619037002 -0.127734318
      0.00255121733 -0.0573408976 0.0147401644 0.111799046 -0.0544727966
      -0.180232927 0.194283858 -0.0203227755 0.0166465342 0.180573404
      0.0632963926 -0.059390381 -0.0891859755 -0.0686185956 -0.169288293
      -0.000990633504 0.125567675 0.124480046 0.158975005 0.0745070428
      0.161807105 -0.0078814188 0.123425476 0.18759504 -0.082507655</_>
    <_>
      -0.122739658 -0.0351164415 3.72251821 1.02477992 1.70347989
      -0.862195492 -0.657552898 1.31311262 0.919585466 0.00835374556
      0.308051407 -0.104807846 1.82678592 0.613902807 0.617389381
      -1.32221866 2.04841661 0.740089953 1.35070169 0.110834554
      -1.21096122 0.292269558 -0.54136616 -0.661608398 1.01122987
      0.0870503858 0.824308693 -1.16554368 -0.320983499 -0.181322679
      0.403614521 0.16378215 -0.964782476 0.302202255 -0.353228062
      0.701037526 -0.22604008 -0.894535661 -0.353172839 1.26291835
      0.155866489 0.0890355706 -0.7298522 -0.865191579 0.609806478
      -0.393441051 0.320439935 0.398789257 -0.0647945628 -0.060723234
      0.439113826 0.803262651 -0.108496964 0.180301189 0.572932184
      -0.374560744 -0.364570379 0.337735265 -0.261348277 0.0980001539
      -0.355355322 0.470672309 0.0347115844 0.666511774 0.573050678
      -0.607022285 -0.997593999 0.185873613 -0.256660491 -0.0369879417
      0.308135033 -0.230936185 0.0126772085 0.131219894 0.0270358361
      0.0225859266 -0.00148300605 0.189251855 0.156076699 0.486557871
      0.69518286 0.360031903 0.527818322 0.0827846676 0.780015349
      -0.954253614 -0.439449877 0.214340657 0.270931512 -0.094710283
      0.364994019 -0.781883776 0.572272897 -0.344630808 0.533269465
      0.0798107088 -0.774548411 -0.0746601373 0.953496754 -0.253873676
      0.0718888342 0.434260249 0.195512101 0.284011334 -0.00838834606
      -0.0193783678 -0.124697648 -0.365217298 0.182888597 0.0979702696
      -0.0787654445 0.0548702031 -0.179888994 -0.382951856 -0.268383503
      -0.800883949 -0.00995646697 0.0904233232 -0.173312843 -0.062802963
      0.372722387 0.0134191522 -0.207367808 -0.408659935 0.37471655
      0.149956733 -0.138602018 -0.144713685 0.633597255 -0.291391999
      -0.120522559 0.00351486588 0.034645576 0.496238887 0.329262584
      -0.0636132956 0.454735219 0.434948891 -0.167358264 -0.0266559031
      0.053348925 0.290030956 0.261398286 -0.355438203 -0.313447863
      -0.134142831 -0.379106998 -0.665361941 -0.359974682 -0.396342725
      0.107811078 0.351054728 -0.342674941 -0.165134385 0.449968666
      -0.131706446 0.345767975 -0.214470476 -0.292433113 -0.36835289
      0.27998063 -0.139621735 0.10866905 -0.153966054 -0.163878039
      0.152719647 -0.362680197 0.362645179 -0.0341166891 0.0530588217
      0.327490568 0.228785142 0.40578261 -0.34567368 0.0538479686
      0.118862726 -0.105090462 0.0481791496 0.487047046 -0.144512102
      0.0859633982 0.0115378676 0.112562463 0.0550571866 -0.248163134
      0.204519868 0.567131996 0.0481544994 -0.25774008 -0.236437067
      -0.694410324 0.289829344 -0.0683929101 -0.156119809 0.226187095
      -0.0040864069 -0.107644893 0.0339388028 0.301664501 0.179971963
      0.153570428 0.198458761 -0.481359005 0.0101740807 0.111250833
      0.16476576 -0.02921753 0.0795677528 -0.29517439 0.215400323
      0.0863552615 -0.253817081 0.061976403 -0.149211943 0.359550923
      -0.0163004566 0.243654311 0.204008475 0.00787057355 -0.16363351
      -0.30073902 -0.121291034 0.633866668 -0.256835938 0.172152251
      0.223197743 -0.0843904018 -0.195694 0.303713888 -0.374660522
      -0.13901931 0.100202881 0.0398599282 -0.291329503 0.131519824
      -0.138187587 0.0692120194 -0.0571256056 0.303761125 0.269556016
      -0.0631762296 0.254340321 -0.220831349 0.312556714 -0.164973319
      0.0566643253 0.0568910874 -0.40679276 0.124307066 0.0200978853
      -0.319355011 0.0787640736 0.208801493 0.0690554604 0.09213458
      -0.117459811 0.201848596 -0.11832945 0.198364139 0.284354508
      0.193288535 0.199811488 0.0292375572 0.00992540084 0.538666427
      -0.0220586639 -0.082719855 0.0741816759 0.0778872594 0.22739166
      -0.230122611 -0.245371968 0.216152877 -0.0275210068 -0.262231946
      -0.0139880572 -0.185807496 0.235142067 -0.195037529 0.162429497
      -0.352526069 0.0575369745 -0.186834186 -0.119043991 -0.0718672276
      -0.315338582 0.112673894 -0.100442871 -0.0603726134 0.379225731
      -0.0262372438 0.0534958318 0.0450197011 0.410362929 -0.0139606977
      0.0788742006 0.115960345 -0.330707908 -0.149737284 -0.0328607783</_>
    <_>
      -0.461247355 -2.09542799 2.71936655 -1.23880875 1.64911091
      -0.964641035 2.09657741 0.388030559 1.11086035 -0.271088928
      0.202683747 -0.375704378 1.02441549 -0.589433491 0.166093037
      0.746913493 0.814832091 -0.33561483 0.902115047 0.295608491
      0.508003533 -1.18880975 -0.121566124 0.347952992 -0.524803758
      0.135717809 0.00286455126 -0.414325327 -0.0699336901 -0.160330534
      0.263153374 0.682396054 -0.375846773 -0.439399123 0.189499632
      0.00227574282 -0.303067148 0.611643851 0.0213744678 0.0902452841
      -0.552141011 0.156935364 0.208058104 0.0873961598 0.0897452757
      -0.277294755 0.0128732687 0.00650471123 0.240497947 -0.628042698
      -0.101806745 -0.148742139 -0.382081836 0.226887137 0.466929853
      -0.155491769 0.0763537362 -0.139052317 0.0329141691 -0.179969609
      0.465864122 0.0481145009 -0.3661246 -0.452648133 -0.158175468
      0.0403633751 -0.373128265 -0.0601121336 -0.0619635321 -0.222921744
      -0.296942532 0.349810332 0.318409234 0.0368456021 0.182659239
      0.0921330005 0.163472325 0.0656699836 0.581360459 0.162590057
      -0.0144104492 -0.0569511279 0.0426526703 -0.358161002 -0.31603837
      -0.0631219968 0.148091227 0.0870784596 0.175669149 -0.00126930233
      0.102616198 0.256633848 0.206173003 0.102616638 -0.243129119
      -0.317746878 -0.269892514 0.398443341 0.0699094981 -0.140843734
      -0.033828862 -0.146431893 -0.0101662325 -0.264633924 -0.198404685
      -0.185498491 -0.266611427 -0.240842551 -0.0516334139 0.256475538
      0.0137244835 0.0960142389 -0.278169751 0.275494576 -0.204217747
      -0.145857081 0.0210951027 0.039911937 -0.236047536 0.0203610267
      -0.31049335 -0.448262781 0.0432796441 -0.211221218 -0.0837762803
      -0.0886156186 -0.443535149 -0.0141443443 0.0339754932
      -0.0211482942 0.279548764 -0.223598123 0.140224665 -0.120652743
      0.103733651 0.382773697 0.3141675 -0.260440618 0.204038858
      0.138509244 0.182700038 -0.175299093 -0.0546997674 0.00428965921
      -0.0716702789 0.0343826748 -0.13833046 0.148157626 0.0879368261
      -0.057299234 -0.0289974455 -0.0270642173 0.243277982 0.263911366
      -0.378529906 -0.171389565 0.0815619677 0.000170351224 -0.168281853
      -0.0481271893 -0.0644617751 0.116176762 0.0468198322 -0.209748238
      0.0557141192 0.0406258143 0.00471821474 -0.0205707382
      -0.0178155787 0.0929003805 0.266285717 0.0103913657 -0.0751172155
      0.105000913 0.257851243 0.12818329 0.00842892937 0.076586239
      -0.0178380739 -0.115313321 0.117018059 -0.0118773282 0.12259452
      -0.11755529 0.0944180638 0.105346903 0.00460034283 0.0166400336
      0.113447487 -0.0670111254 -0.317973852 -0.0889542252 -0.0520964973
      0.410507411 -0.0497107357 -0.039360702 -0.0902773514 -0.160265729
      0.0783489123 -0.10311947 -0.0814696625 0.0469780229 0.0729248598
      -0.00821673032 -0.0856906995 0.0138894115 0.190551564 0.261722177
      -0.210379809 0.0155120464 -0.110424474 0.0904902294 0.111709923
      0.17223613 -0.257503271 -0.0365393609 0.0600790754 0.152770177
      0.0111342464 0.135365576 -0.0701918378 -0.253412664 -0.0272018313
      -0.238911688 -0.362571836 -0.0164127536 -0.0453711897
      -0.0877257958 -0.157650754 -0.172824606 -0.22220175 -0.149335206
      0.138798252 -0.0204433445 0.111240879 -0.0446284562 -0.00543537596
      -0.0724016652 0.068323493 0.0263463687 -0.0178303998 -0.277116239
      -0.0198380426 -0.252018154 -0.0442620739 -0.0963293836
      -0.0807572678 -0.0928507 -0.265327215 -0.00234294194 0.034623906
      -0.00133873115 -0.135944068 0.192159161 -0.130134478 0.0881406367
      0.0365215652 -0.101770833 -0.0452246442 0.173614338 0.125800237
      -0.0859667808 0.125558838 0.0963248983 0.0265916418 0.0264648609
      -0.0306062847 -0.08543998 -0.0597135238 0.134171665 0.0832718611
      -0.294006675 -0.0364170037 0.217878446 0.0649316087 0.390281647
      -0.0556732416 -0.0885232762 -0.0950597152 -0.0169530436
      0.059195023 -0.123869203 0.0482585765 -0.180613235 0.278164864
      0.139915884 0.210872471 0.124962121 -0.0449026152 -0.175244272
      0.0529426336 0.0869806707 -0.0804426447 0.0202123113 0.108812049
      -0.053163074 0.119732969 -0.23690635 -0.241900086 -0.153817087</_>
    <_>
      -1.58533978 -0.457268745 0.326196462 0.119060621 3.23292542
      0.526788175 -0.0357751921 1.32651854 1.46933556 0.091573298
      0.805550754 -0.478209734 0.894682407 -0.0455179513 1.78567529
      -0.448973626 -0.698537946 0.25804615 -0.598935664 -0.407300413
      -0.672575533 -0.0528509803 0.223615125 0.390063941 0.0472867526
      -0.387040168 -0.677544415 -0.338964462 0.590149462 0.384493619
      0.0839397162 -0.603107989 0.0351614431 0.844373167 0.0395867974
      0.261330336 -0.659344733 0.487074494 -0.105397411 0.0074804062
      -0.119999401 0.402345389 -0.389802188 -0.213028818 0.611485183
      -1.15432036 0.888724744 0.141041249 -0.160006195 0.637255013
      -0.365312696 0.350690454 -0.303670079 0.671208799 -0.242715418
      0.152310371 -0.037610013 0.114312783 0.0642585531 -0.0423422493
      -0.73559463 0.172943413 0.232319281 -0.283732414 -0.0345078819
      0.174981311 -0.0733208582 -0.059878353 0.362768322 0.166775465
      0.0109754689 0.118948534 0.527817309 -0.278141558 -0.33961159
      0.188454837 -0.0187750999 0.463588893 -0.397615731 -0.35062772
      0.121709794 -0.146248922 0.29825297 0.547981143 -0.0313044898
      -0.308037251 -0.14210777 0.00399925467 -0.415096253 0.0052709654
      0.248867601 0.195333794 0.0746483803 0.101356693 0.379476994
      -0.0226722751 0.260884821 -0.148702502 0.0169988759 -0.164054319
      0.509326756 -0.133559838 -0.0283442084 -0.0442508534 0.466783911
      0.327137113 -0.311757028 -0.0968482196 -0.301625609 -0.12607266
      0.2320669 -0.251726806 0.230444402 -0.210570812 -0.368216932
      -0.0154507654 -0.148007289 -0.415586859 -0.0251033921 0.231062293
      0.0246577393 0.127420127 0.0596941151 -0.298202991 0.195678696
      -0.0132956682 -0.0331892855 -0.199454084 0.0114403702 0.170437336
      -0.0194656495 0.134356618 0.101939104 0.528611481 0.239974901
      -0.0781889707 -0.18153511 -0.246677354 -0.106057964 -0.178704828
      -0.121482581 -0.0361766778 0.132801846 0.0538115427 -0.151763186
      0.0785905421 -0.39580363 -0.0388514549 -0.221361071 -0.165180355
      -0.0702946857 -0.395210177 0.125075772 0.186967149 0.503860116
      0.254731148 -0.1708 0.243537158 0.101506092 -0.278948665
      0.179458365 0.00168589572 -0.236215994 -0.213519201 -0.0612659417
      -0.393616974 0.166837171 -0.0151634198 -0.120648459 0.402949363
      -0.31741485 0.0347228311 -0.0911286399 0.0725923479 -0.218194962
      -0.253742665 -0.0059218579 0.133935347 0.035607636 -0.195418328
      -0.133645818 -0.113837481 -0.350094378 0.0169951543 0.262980461
      -0.152903363 -0.0711579695 0.317097276 -0.18659611 -0.115294136
      -0.13114202 -0.208647206 -0.138774574 -0.156234995 0.00339101488
      -0.10541819 0.283031166 -0.186119661 0.232612699 -0.111726522
      -0.0506271049 0.00487610372 -0.0390340313 -0.0351980068
      -0.0055964184 0.210926667 0.0305305123 -0.201888293 -0.107273832
      -0.172918528 -0.0579928681 0.054254014 -0.0692656487 -0.0782294497
      -0.193256795 0.116369992 0.0101610376 -0.149580821 -0.208018705
      0.131487846 0.440185696 0.301609099 0.0572617091 -0.122832909
      -0.00804057997 -0.120661862 -0.0585577115 0.106588826
      -0.0573091581 -0.202516511 -0.0185382385 -0.0985556543 0.106230795
      -0.0906806439 0.105242021 -0.0915885568 -0.0896680057 0.0393651612
      -0.0516623147 0.129748106 -0.0934934095 -0.188028142 0.113249443
      0.0486778803 0.0659971908 0.13141042 0.0503015816 0.378370583
      -0.0751364976 -0.109687477 0.000950584945 0.193929389 0.0170734227
      0.14937219 -0.205480844 0.167650342 -0.161828786 0.0390810594
      0.105477169 -0.114988863 0.216423318 0.0967689231 -0.0451494381
      0.0734665543 -0.00680337287 -0.0643569529 0.102008052
      0.00305201649 -0.065131627 -0.0625696555 -0.245993182
      -0.0447788388 -0.108030908 -0.0759280026 -0.19130367 0.219377458
      -0.113105915 0.231037557 0.0619084351 0.0447919667 -0.134535596
      0.124991387 0.166478276 -0.088507399 -0.0287166145 0.0561774448
      0.0552942716 -0.00849730894 0.0354581587 0.0543809943
      -0.000185079247 0.0150598045 -0.103113331 -0.21024996 0.0482134558
      0.00518009951 -0.0626626238 0.0115110902 0.166472912 0.205140084</_>
    <_>
      2.25481319 -1.60584211 1.2803123 -0.681746185 0.409824014
      1.45268786 -0.276039362 0.784621179 1.11330712 -0.436094165
      1.31163657 -0.934785664 0.362401277 -1.02027595 0.126735434
      -0.539155245 -0.0930986777 1.67010105 -0.590065122 0.328391314
      -0.900154471 -0.816497803 -0.325775892 -0.162325591 0.717782378
      0.0805402473 0.275215894 0.0847573653 -0.00337554188 0.343478054
      0.629117846 -0.357076317 -0.906100631 0.990694523 0.643472195
      0.00768578611 -0.366942704 -0.377013922 -0.856257796 -0.0722991526
      0.301568687 -0.154959664 -0.134690523 0.216290727 -0.0567897148
      -0.722810388 0.450957298 0.436259985 0.309302747 -0.254441112
      -0.272360623 -0.324750781 0.0109286197 0.397493541 -0.31272456
      -0.680683732 0.442186981 -0.747647524 -0.509186268 0.318104804
      0.341546625 0.277115762 0.440426856 0.339950442 0.53616488
      -0.221905753 0.154067665 0.613480687 0.193009183 0.376442969
      0.105089076 -0.221877873 -0.0107234325 0.0511796959 0.0279306546
      0.0616902485 -0.107679121 -0.101200633 -0.36912328 0.507742882
      0.657138824 -0.264358044 0.374918103 -0.12449304 0.207658082
      0.379156858 -0.335498482 -0.185314953 0.173013911 0.280019373
      0.0839659795 -0.406430572 -0.209259257 0.202782258 0.992219269
      0.311900169 0.372756839 -0.3864941 -0.235843047 0.137758389
      0.0175343547 -0.0115758777 0.164754629 -0.0285752751 -0.3446621
      0.618899465 -0.224922314 -0.257236868 0.0535658784 0.0780611709
      -0.270888269 -0.0302707162 -0.36745584 -0.0612983741 0.0392365754
      -0.137277722 -0.00480138557 -0.0128469318 0.232849523 -0.164920866
      -0.135451242 0.0358881839 0.288830876 0.333020806 0.35584572
      -0.326596051 0.0391241834 -0.31896469 0.362341672 -0.00841767155
      0.235157177 0.209823981 0.236065775 -0.293416381 0.271762162
      -0.259151906 0.0690871701 0.0520790033 0.0886219069 -0.0922580212
      -0.100620367 0.411828578 -0.371882826 -0.47875303 -0.758679748
      -0.193681806 -0.0107266614 0.105080694 -0.0086013088 0.164890394
      -0.221371368 0.0468475558 -0.0975034535 0.400899529 0.074290365
      0.0941759497 -0.0323812813 -0.364348084 0.013674316 -0.163691774
      -0.281605363 0.160354421 -0.377578825 -0.564822018 -0.116302289
      0.260385424 0.509323716 -0.13532044 0.16806452 0.486231148
      0.304994434 0.0191154536 0.277817607 -0.260290146 0.0881393701
      0.267151147 -0.317237377 -0.027902266 -0.0419522822 -0.160690382
      -0.114418477 0.16108115 -0.135641575 -0.0526271202 -0.0950885937
      -0.344192207 0.00199111411 -0.00481494004 0.0930472687
      -0.110012025 0.144530892 0.0894783437 -0.281047881 -0.357148141
      -0.157633036 -0.0524883978 0.181670293 -0.0171980057 -0.0662343577
      -0.119617574 0.293336183 -0.0584513135 0.0992384255 -0.218731195
      0.279378176 -0.204748064 0.0825927779 0.184308693 -0.19854252
      -0.0680069476 0.288248628 -0.213353217 -0.0055952929 0.0607655942
      0.383047462 -0.431688756 0.251985818 -0.217855528 0.0664016828
      0.204948321 0.137037367 -0.0495669656 -0.21454002 -0.0082203038
      -0.172586635 -0.226214379 0.31518513 0.177734241 0.072604008
      -0.0623837784 -0.207112968 -0.0479445159 -0.381206274 -0.217679843
      -0.165063038 0.0544346608 -0.0382014252 -0.0999156609 0.0803163946
      0.0602799021 0.0482128486 0.258913219 0.058244098 -0.271683514
      0.00469550304 0.0616350248 0.0531886667 0.105986141 0.271274656
      0.0181515627 0.469766825 -0.107954517 -0.273087472 0.247081205
      -0.165137276 -0.0208448302 0.0245814882 0.0369510092 -0.199009702
      0.0614575073 -0.214065939 -0.0530292094 -0.0567486584 -0.212486356
      -0.230024114 -0.277031749 -0.0215373915 -0.169379622 0.112416476
      0.0433859564 0.251422584 0.202799797 -0.289650768 0.323461533
      -0.0553735495 0.0491826758 0.0456193127 -0.020837348 -0.116771951
      0.123988517 -0.343678027 0.120671734 -0.232429832 -0.115815707
      0.0128141614 0.134394661 -0.0302107297 -0.00270643411 -0.173306197
      -0.0853044242 -0.142192677 -0.0215827115 -0.150340781 0.371816605
      -0.0356906317 -0.109770611 0.0204120614 0.0734029338 -0.103755511
      -0.286631495</_>
    <_>
      -1.51494014 1.35533822 0.450051993 -0.631088734 0.0540551394
      0.667129993 -0.31379801 -0.0307820197 0.332328677 -1.77824652
      1.72128618 -1.00968742 -2.07839036 0.628605306 0.50734967
      -0.155625254 -0.0453264564 0.748949528 -0.334636152 -1.55548251
      -0.171258673 1.33316636 0.0719867945 -0.281181484 -0.5206967
      -0.70552963 0.538954198 -0.0488336906 -0.131475642 -0.354550838
      -0.00796404667 -0.161095753 -0.0121247033 0.760804534 -0.955022573
      -0.519067228 -0.00591767766 -0.843612254 0.950110793 -0.347189873
      -0.325006247 -0.532349586 0.658707321 -0.844724596 -0.0368626378
      0.381211191 0.423366785 -0.00729724951 -0.211377025 0.599921048
      -0.0539287217 0.788802922 -0.703490198 -0.2102011 0.323423326
      -0.120760158 -0.188459456 0.321764678 0.0673955455 0.0825116634
      -0.0305793919 -1.21154332 -0.408627659 -0.203362212 -0.0357352644
      0.430941045 0.462728709 0.355919003 0.0785260722 0.130770132
      -0.380797297 0.0462868437 0.286779404 -0.122040071 0.595901668
      -0.238883078 0.282391846 0.168261707 -0.182644621 -0.519416273
      0.0224546455 -0.295763493 0.356970757 0.418149292 0.0634057447
      -0.118955448 0.502297401 -0.229470253 -0.182891622 -0.512376249
      -0.0509463064 0.015166535 0.208449095 -0.228858337 0.34560445
      -0.030452352 -0.518585443 0.103465483 0.594929874 -0.0864743739
      -0.183665052 -0.135183394 -0.296298057 0.0260155797 -0.0971600637
      0.30442813 0.168506026 -0.125268891 0.226116285 -0.190752789
      -0.0938912183 -0.522058487 -0.323780656 0.380249739 0.210575759
      -0.0564340241 -0.0031541558 0.177549705 0.0401674137 -0.307049394
      0.0376653895 -0.0454696156 0.0233808458 -0.171832725 -0.180968791
      -0.226479739 -0.436569184 0.0900167078 0.529283464 0.169921517
      -0.11095956 -0.0718358979 -0.424856722 -0.0203463044 0.3425318
      0.422510535 0.0451994613 0.00160688173 -0.245577559 -0.181576267
      -0.152172565 -0.382386774 -0.146360114 0.0029811589 -0.0529934205
      -0.228723437 -0.141563579 0.0167159978 0.174528003 0.124839343
      0.161388502 0.106144749 0.123219751 0.164046407 0.222106397
      0.0637301356 -0.0180528089 0.0960468426 0.2547279 -0.190946192
      0.191244468 0.110773861 0.0615294166 0.108614206 0.131096348
      0.102449715 -0.130556852 -0.0334822461 0.068070747 0.25169912
      -0.211958244 -0.350226521 0.0620738454 -0.35219565 -0.0991750136
      0.0116856014 0.0888504535 0.229395956 0.11911758 0.279977053
      0.212196261 -0.0602995418 0.117736988 -0.226026297 0.0548771806
      -0.167081699 0.197703764 -0.0303890761 -0.10210558 -0.263510674
      0.292169482 -0.152906358 0.0263988674 0.0445331298 -0.0221685115
      -0.191573188 -0.00639494928 0.273208737 0.374984175 0.324763894
      0.00583593175 0.164672166 0.0866976455 -0.217381135 -0.112803072
      0.328983784 -0.0813515708 -0.0940750614 -0.395148873 0.0257964376
      0.180767417 -0.0245522037 -0.0993635431 -0.154845417 -0.0920851752
      -0.0639784932 -0.0925215408 -0.133451641 0.471249729 0.252592534
      0.154009506 -0.23542206 -0.206037521 -0.263867468 -0.158988521
      0.180795044 0.274114162 -0.209015399 -0.224246442 0.176802009
      -0.0312463585 0.0706013888 -0.0475029983 -0.0198228173
      0.0765390545 -0.030505361 -0.165462494 -0.0687883571 0.365595758
      -0.0310685467 0.118847646 0.00622082688 -0.25039953 -0.0212441646
      0.0210602079 0.233924463 -0.0488309115 0.0661031455 -0.13624531
      -0.0447427072 -0.2229238 -0.0774397254 -0.0832291171 0.137061268
      0.025374528 -0.0383104719 -0.211804152 -0.0197735094 0.017027121
      -1.46672328e-05 -0.0693986937 0.0361811668 0.000401371421
      -0.0373969749 0.193514049 0.0348160639 -0.102450736 0.217600867
      -0.292452574 0.027318012 0.129705071 -0.124654606 0.0473472103
      0.18398267 -0.125601307 0.00381128863 -0.00847323239 -0.0873728693
      0.155743465 -0.0448597558 0.0536102317 -0.0480822138 0.0181517191
      -0.0822332427 -0.0206644665 -0.0119718974 0.0226218812 0.179962307
      -0.109274566 0.154330522 -0.0617507733 -0.196969554 -0.04810315
      -0.0573887601 -0.0122428657 0.103344552 0.189118072 -0.222759977
      -0.17248112 0.164649054</_>
    <_>
      0.520167112 0.264511585 3.51045585 -0.684597015 -0.594419658
      0.54114753 1.79941726 0.588110149 0.143269703 -0.160659164
      0.871933639 0.642442107 0.251517713 -0.581356645 -0.0197239537
      -1.0857836 -0.603367984 0.561895132 -0.592873275 -0.446850479
      1.59231353 0.501685977 -0.390912414 -0.73411727 0.431291521
      0.0322250314 -0.652373731 -0.0173785016 0.873128474 0.152580366
      0.706349969 -0.0587325357 -1.16343021 0.269375414 -0.533504784
      -0.106504858 0.870238841 0.0590819009 -0.151288897 -0.261475861
      0.345888495 0.240728706 0.219909102 -0.35461241 0.614964366
      0.359995455 0.310813725 0.363358855 -1.23337805 -0.499162495
      0.212604329 -0.709537566 0.861659169 -0.289814562 -0.512540758
      -0.207535744 -0.154132694 -0.191467643 0.0732680261 0.67531836
      0.431405842 0.144976437 0.607842386 0.241862655 -0.0382879935
      -0.0806825906 -0.378398299 0.23574762 0.397279471 -0.417641252
      -0.367269993 -0.792907 -0.645125628 0.929215133 -0.15465039
      0.374388874 -0.170415685 0.403196305 0.559992313 -0.606490433
      0.656029284 0.504994929 0.260145366 0.103328831 0.614325464
      0.498718679 0.428463757 -0.405605763 -0.130402163 -0.705512345
      0.902718246 0.0349463485 0.652331352 -0.326288313 0.194023535
      -0.10546723 0.952036738 -0.460759133 -0.109931953 0.173592106
      -0.104395784 -0.0572723672 0.448700279 0.473911643 0.204567805
      0.0585273467 -0.137445912 0.118356422 0.00693633081 0.374324471
      -0.0497614853 -0.0639799759 0.117507033 -0.271392763 -0.0675902739
      -0.212596357 0.167081773 0.194489762 -0.13068983 0.00337533024
      0.214244068 -0.710766315 -0.467287689 0.271965712 -0.024508927
      -0.0473011881 -0.102299802 0.155077696 0.00289782416 0.475771427
      -0.166538522 0.167448327 0.02717367 0.100664213 -0.158551067
      -0.0943618789 0.0618227907 -0.0325170048 -0.126769394 -0.333857179
      -0.307735384 -0.0880726948 0.0602633618 -0.541077852 0.212369114
      -0.416536242 -0.115482934 0.0293517951 0.168767706 -0.33521831
      0.135842115 -0.216742009 -0.121703982 0.0537881851 0.0284148119
      0.423471928 -0.266093254 -0.365368634 -0.0534601584 -0.257561922
      -0.0386714078 0.239542156 -0.439720899 0.385971308 -0.314712495
      0.180161595 0.376368135 -0.00847054552 0.153387636 0.068999581
      0.40085426 -0.181903169 -0.0478588641 -0.392830849 -0.389085948
      -0.295070648 -0.0352292769 0.105358936 0.385905147 0.0866655931
      -0.311761796 -0.118170768 -0.189762548 0.344103515 0.367953807
      -0.245429352 0.0526810698 0.192663997 -0.0288960058 0.0619219728
      -0.123128109 -0.0914101005 -0.225498021 -0.123450875 0.205866143
      -0.266692609 -0.0648180991 -0.0324341767 0.187993392 0.160400197
      -0.0858939961 -0.129960537 0.191757232 0.0295190923 -0.0200701207
      0.0547846518 0.214741468 -0.0777089372 0.189832807 0.206435263
      -0.211399436 0.0324899405 0.193456531 -0.333887964 -0.488508582
      -0.25771448 -0.426267892 0.353239119 0.0113900676 0.207954288
      -0.00674082479 -0.147530645 0.11979267 0.230013445 -0.133701459
      -0.00178177154 0.27096945 0.0535176136 -0.184591189 0.290981323
      0.00246519782 0.0758313686 -0.00210010284 -0.248727888
      -0.234845445 0.482456177 0.0882829428 -0.12076427 -0.0933504626
      -0.0400190875 0.165832385 0.0236187149 0.217781156 -0.169099823
      0.0548145697 0.274268508 0.385258853 0.12155617 -0.0492661782
      -0.0703681707 0.0317401104 -0.193479687 -0.434088111 0.306720853
      0.0729322135 -0.0740699172 -0.13850747 0.167456299 -0.158110127
      -0.236109197 0.20237945 -0.354177535 0.0888010859 0.102179639
      0.36196366 -0.00909946114 -0.240690172 -0.0934886709 0.0803346932
      0.183965743 0.0408608019 0.125957444 -0.132316992 -0.101768188
      0.02195438 0.0852968097 -0.214216173 -0.0404566601 0.0214262344
      -0.0279821474 -0.116319239 -0.00449938234 0.221195921 0.023446938
      0.0269244518 0.198771372 0.0984626263 0.121132098 -0.0204359293
      -0.161573306 0.141795576 -0.204480067 -0.118846722 -0.145804316
      -0.288244337 -0.052448824 -0.13992618 0.00556581374 -0.0718454346
      -0.150784731</_>
    <_>
      0.856324553 -1.24670625 2.26223135 -0.995985389 -0.536189258
      0.000536378531 0.366706222 -0.54242301 1.02456486 0.275760382
      0.0391273871 1.04882526 0.778665721 0.495389163 -0.376858115
      -0.100012161 1.04674411 0.661548913 -1.08618426 -0.109958328
      0.362885773 -1.06645632 -0.588824809 -0.149752095 -0.522322178
      0.250254154 0.122793294 -0.13139303 0.641590297 0.103312872
      -0.0816585198 0.924744904 0.388752729 0.0399519838 -0.157890707
      0.15668197 0.946801662 0.531223297 0.553818524 -0.254553378
      0.0659773722 0.301736206 0.558710456 0.217619658 -0.0322120339
      -1.06612611 0.500643194 0.0529447459 0.211254686 -0.147092208
      -0.481034011 -0.256882071 -0.398671806 0.244298741 -0.219624221
      0.252237856 -0.0915672034 -0.319592565 -0.500977218 -0.261205375
      0.0160268247 0.0566691421 0.237672538 0.0350619145 0.420189977
      0.344125777 -0.379328609 -0.327816546 0.205034807 0.707543492
      -0.235701337 0.633910835 -0.322941869 -0.0465916321 -0.0463789217
      0.0819192529 0.787129939 -0.67991662 0.297004849 0.213930979
      -0.0765355229 0.317819178 -0.394033253 -0.374578774 -0.21516709
      0.778577864 0.0620617904 -0.42322132 -0.108772427 0.26782468
      0.0799724162 0.215765804 0.442381173 -0.135504186 -0.0875058398
      -0.315816849 -0.272163302 0.407471359 0.115496457 -0.174883991
      0.00660886476 -0.0861102268 0.124583311 0.15454945 -0.532740533
      -0.366988719 0.0107346326 -0.0854645297 0.226566792 0.464308649
      0.21480073 0.163074076 0.0528938882 0.292598635 0.176483706
      0.0812224895 -0.0489508398 0.248621851 0.282563269 0.401922792
      -0.0785506889 -0.0826086104 0.0966373682 -0.0987745598
      -0.206190228 -0.18538624 0.44628948 0.461688548 0.102222301
      0.394458264 -0.155110762 -0.279069453 0.65200156 -0.045518253
      0.189196333 0.14823775 0.204086602 0.468324184 -0.154186323
      0.158191934 -0.289676756 -0.0380140133 -0.00040494508 -0.147522196
      0.216494784 0.00714370282 -0.0901597738 0.350667059 0.147580028
      -0.348940134 0.275779009 0.239568606 0.000670345617 -0.179818362
      -0.0670014769 0.33203885 0.132736593 -0.0742918998 0.0996560454
      -0.0790589526 -0.354859591 0.203573093 0.138356701 -0.167509496
      -0.159587607 -0.0961205438 0.133493483 -0.0956255794 -0.0559897684
      0.0763329864 0.142946556 0.0811760873 -0.113508813 0.327485055
      -0.335674793 0.0868861303 0.337636769 -0.0089612538 -0.17004934
      0.163146228 -0.459486306 0.173275098 -0.13250193 0.00294934446
      -0.426223695 -0.367781848 0.0623327568 0.34126398 -0.170952886
      0.0115389749 0.0256834589 -0.0457298197 0.0581745617 0.0251340084
      -0.00163376739 -0.0650160015 0.174359336 0.0988512337 -0.282259673
      0.0673948377 -0.123969875 -0.0875576586 -0.346497893 0.261025101
      -0.138748497 0.234300941 0.115873486 0.0842742994 -0.361136615
      0.359665841 -0.343041122 0.0948625728 0.0709386617 0.0633560792
      0.127323404 0.0432322696 0.0728987679 0.291815162 0.216473401
      0.366532236 -0.0528218187 -0.0196486022 -0.392208368 0.134168535
      -0.285494238 0.042425938 0.0266106389 -0.270902395 0.509590328
      -0.387148142 -0.2676332 0.264553159 -0.00227238401 0.225645915
      -0.230488136 0.192007095 -0.0627714917 -0.0464781374 0.0907571763
      0.19447799 0.108257383 0.0781839788 0.122604549 0.289426059
      0.312892765 -0.254092723 -0.117708005 -0.315681785 -0.143332213
      -0.222860083 -0.020392729 -0.0378394462 -0.0532139167
      -0.0297631137 -0.230142906 0.115156703 -0.135212153 0.0665465593
      -0.27167207 0.110680573 -0.0422952846 -0.344909906 -0.0630394071
      -0.161755681 -0.032700818 -0.0933537483 0.263110101 -0.00475620106
      -0.130812526 -0.16696763 0.174030513 -0.0665410608 0.0242950637
      -0.241676643 0.168214172 -0.0190097056 0.144780934 0.0945357084
      -0.129077882 0.0402310677 0.268727452 0.204451397 0.143488154
      -0.0668601617 0.127079546 -0.448505729 0.357710153 -0.276996285
      0.266466647 -0.00749094598 0.137656972 -0.106904909 0.0579672456
      -0.0526350588 0.343757659 0.0923156515 0.0391372591 -0.30169791
      -0.19071269 0.0524454862</_>
    <_>
      -0.540784776 0.977730632 3.48322368 0.632418275 2.60806942
      -1.2109946 -0.0155544821 2.12126803 -0.330326945 1.55006146
      -0.500369191 0.595967889 0.862769723 -0.0796463564 -0.306401759
      -1.40757203 1.17193043 -0.317714244 1.80752206 0.23935625
      -1.0797621 -0.0263173599 0.442836791 0.619692624 1.2332294
      -0.0402237922 0.0827611908 -0.713980675 -0.210830331 -0.233377874
      -0.177722439 0.31552428 -1.02568865 -0.332387358 -0.670783639
      -0.103867397 -0.612252712 -0.66059351 0.337536097 0.316182494
      0.238342807 0.271391481 -0.730520666 -0.658741415 -0.0710677505
      -0.796120048 0.514998257 -0.666375577 0.183545291 -0.263784766
      -0.252325028 0.0316634998 0.0777935758 -0.33763212 0.0483233891
      0.041803509 -0.488218993 -0.0330516174 -0.182344154 0.452404499
      0.433719635 0.53730756 0.281031489 0.102654465 0.236786276
      -0.504489183 -0.371160746 0.322751492 -0.291574657 0.317796201
      0.0520300418 0.0219516251 0.377641886 -0.130626008 -0.0600219965
      0.971798956 -0.34084928 0.0297419988 0.648317575 0.125234738
      0.577513754 0.220318928 0.334504396 0.445294261 0.956537306
      -1.03994823 -0.440826476 0.105337329 0.308788896 0.354749471
      0.364541054 -0.724849164 0.288071543 0.481036574 0.449532181
      0.226504296 -0.487746388 0.27495116 0.414106429 -0.232836172
      0.241675436 0.216961727 0.262926638 0.17344816 0.213723615
      0.486237288 -0.00946756732 -0.106110834 0.0375020988 -0.27553311
      -0.0498506203 0.0909916312 -0.26024574 0.189713687 -0.0139592998
      -0.188567653 0.279331535 -0.162056923 -0.321248084 0.195648253
      -0.260304898 -0.276000261 -0.428845674 0.141662195 -0.276844382
      0.110286005 -0.0801791027 0.270671844 0.452242374 -0.0692790374
      0.0622625276 -0.0689005107 -0.116031162 0.387198597 0.253333122
      -0.349293172 0.436908633 -0.0765760168 0.110767551 -0.119428724
      0.0843653157 0.311336279 -0.166703999 -0.230120674 -0.101381004
      0.000378233759 -0.0428716019 -0.537425697 0.0379581973
      -0.106394134 -0.160485283 0.3113437 -0.0875238702 -0.343120217
      0.315600216 -0.0941854492 -0.0233465862 -0.0810947046 0.428898424
      -0.100553051 -0.115572415 -0.14825806 0.177687794 0.158253565
      -0.0402164534 0.0668896884 -0.0857972726 0.149911255 -0.194273412
      0.0251472984 -0.208512798 0.37790066 -0.118410155 -0.442833453
      0.00259116385 0.417969674 -0.147502184 0.276272267 0.0931184813
      -0.0288251508 -0.31623897 -0.00557408947 -0.088380523
      -0.0747271776 -0.0307105761 0.182604983 0.204872221 0.140939772
      -0.120269343 0.156547934 0.0271631069 -0.000655331882
      -0.0428476259 -0.0208959896 0.165749446 -0.144154891 0.0725645572
      -0.025030734 0.0795835033 -0.228290483 0.159486905 0.451521426
      0.150960431 0.2296969 0.169762179 0.0369679183 0.0140819335
      0.283483595 -0.384123892 -0.477023929 0.309129715 -0.165732071
      -0.195118845 0.108842798 -0.0183186065 0.178500921 -0.192538306
      0.104379065 -0.171047553 0.121583864 -0.0525204502 -0.132064983
      0.288211435 0.14727214 0.205737546 -0.045763202 0.160433054
      -0.136167333 0.0684557185 -0.125979662 0.146746799 0.31513083
      0.0886915028 -0.445938081 0.304004669 0.01012401 -0.248028487
      0.0643428266 -0.0418111905 -0.0316360109 -0.103108302 0.0537715666
      -0.00121199666 -0.0394359343 0.0298815556 0.061894957
      -0.00749604497 -0.111506626 -0.105216026 -0.154798597
      -0.00101417792 0.227896139 -0.0280752294 -0.00329610473
      0.081530273 0.114415124 -0.189475894 0.34284541 -0.0414526463
      -0.0490515754 -0.0375862084 -0.0753607303 0.105957679
      0.00761067681 -0.000466741767 -0.083702378 0.0850045308
      -0.0570647158 -0.0499112904 0.00154146459 -0.0820999071
      -0.206233829 -0.0534608439 0.0169938952 0.061995849 0.0778797269
      -0.00531614991 0.231663108 -0.108431585 -0.129872039 -0.317381263
      0.0705471113 -0.0588395372 -0.0232044682 0.0111146457
      -0.0152012929 -0.0533249229 0.00597470487 -0.0789002106 0.10231974
      0.188799992 -0.0200102907 -0.07929153 0.178581774 0.164217472
      0.0474773906 -0.0947707668 0.176150322 -0.142919526 -0.069580391</_>
    <_>
      -0.254646391 0.977090657 2.36955929 0.0810345709 -0.708661377
      -0.244737536 -0.0729033202 0.621958852 0.220880821 -0.706672251
      0.476404697 -0.567477763 -0.515845299 -0.213990629 0.413018972
      0.858322442 -0.0246994421 0.113674305 -0.465804696 -0.17740421
      -0.0707121342 -0.396608114 -0.650664389 -0.610993266 -0.916436613
      1.38026345 0.338923842 0.0251201205 0.489851117 0.886597216
      0.173260659 -0.787192464 0.50026083 -0.928092778 1.01870763
      -0.157212183 -0.614696562 0.199420407 -0.248832688 -0.718874753
      -0.166928709 0.145869061 0.31090486 1.21315026 0.760112166
      -0.174499348 0.562463045 0.926748753 0.256324977 0.180099294
      -0.235276014 0.0566469319 0.283604294 0.238927081 -0.0297157224
      -0.480331093 0.922894955 -0.382306814 -0.759408653 0.835674286
      -0.093645528 -1.00239968 0.0546766259 -0.705173671 0.878408432
      -0.00470102951 0.155875847 -0.536507308 0.604038477 0.122744732
      -0.794801354 0.0979493633 -0.589478254 -0.234697849 0.205303267
      0.198481962 -0.116529517 -0.827274442 0.225493789 0.405356795
      0.262393415 -0.176966622 -0.419523269 -0.81938982 0.397923023
      -0.0541491024 -0.370884717 0.0717701167 0.121918991 0.148359135
      -0.894263446 -0.201988161 0.207041889 0.0136075299 0.158750042
      -0.607358515 0.00657315925 -0.0164367706 0.0481585562 0.39710331
      -0.110081188 0.429814607 -0.0614681244 -0.0868322998 -0.13804701
      -0.951263249 0.544502974 0.26336816 -0.0237270128 0.486495763
      -0.205734819 0.112593651 0.0371778794 0.156895563 -0.547784567
      0.366082788 -0.0842020884 -0.338954061 0.0746575445 0.149927273
      -0.366847992 -0.228383437 -0.114827037 0.512642145 -0.449969709
      0.445709765 -0.188725367 0.448223263 -0.126596272 0.13228792
      0.367003858 -0.0386814028 0.370996147 -0.145896435 0.0255623329
      -0.135811061 0.207811907 0.149378434 0.166195169 0.407821447
      0.0868192911 -0.253422678 0.273830235 0.136572301 -0.515829802
      -0.130897388 0.0528538451 0.285330474 0.199992165 -0.117537342
      -0.396591336 0.255532056 -0.226513535 -0.0383264162 0.132534549
      0.214829475 0.489846468 0.407328904 0.0896279216 -0.168378234
      0.165175304 -0.523925185 0.101397492 -0.345477968 -0.104428284
      -0.0963067785 0.115175717 0.466395974 -0.124990568 -0.155112371
      -0.106945366 0.153670773 -0.0526788235 0.620448172 0.205511466
      -0.104152374 0.329127967 0.00930070877 -0.0653475821 0.293096691
      -0.125175044 -0.0537947565 0.0134585565 -0.133654594 -0.0909036696
      -0.113241069 0.119721994 -0.101970725 -0.040009357 -0.0994851142
      -0.151148811 0.0120642949 -0.0501240827 0.07126607 0.175280929
      -0.0208268687 0.178401008 -0.333166599 -0.0895070657 0.081070818
      0.015802322 -0.0423007682 -0.0912513584 0.306767941 -0.261422575
      -0.233542591 -0.187339455 -0.0885023922 -0.397851795 0.0743396729
      0.144557968 0.0963652134 0.223909885 -0.00326232868 0.00199778331
      0.248119161 0.0438186117 0.113163918 -0.20185554 -0.158923566
      0.448343188 0.233604357 0.411835223 0.266670316 -0.157567635
      -0.0605175793 -0.0777272731 -0.0673325285 -0.300114006 0.172707677
      0.087444596 0.312877357 0.116507791 0.102988951 0.188942596
      -0.225286976 0.140977994 0.144018292 -0.0901193693 0.00879327208
      -0.199166462 0.469649374 0.25846523 0.406633615 0.120983563
      -0.0836384147 0.190213636 -0.18281275 0.203947052 -0.142774358
      0.131374285 0.147998527 0.115302533 -0.0879800171 0.146376461
      0.244665593 -0.13763012 -0.0617825389 0.125508398 -0.0833384842
      -0.27558735 -0.0456809253 -0.142289832 0.45056653 0.343441963
      -0.106695376 -0.0387202017 0.163428038 -0.136689752 -0.167081743
      0.375094742 -0.0488034785 -0.135393918 -0.13184166 0.193532556
      0.198501095 -0.138161108 -0.0531011261 0.139053762 -0.100232758
      -0.00699780183 -0.103026949 0.0737627223 0.266846985 0.203854799
      0.199067011 -0.306703478 0.115147181 -0.227833569 -0.1555143
      0.0119351335 0.101250224 -0.184068963 -0.252229512 -0.151767507
      0.0956465378 0.0209159367 -0.000794186082 -0.23655808 0.0433026068</_>
    <_>
      -1.93969488 0.704414189 -2.61255646 -1.79840732 -0.442691147
      -0.147722632 0.762181342 -0.870088279 0.228721038 0.769912004
      -0.0913474113 0.737168431 -0.261284024 -1.02682137 -0.536653519
      -0.0170952026 0.532819629 0.349377632 -0.602279425 0.530657887
      0.0967185646 0.107591435 -0.395221382 0.213963911 0.366190135
      0.106409252 0.681358099 -0.723733604 -0.245975226 0.452355534
      -0.167911515 0.0662649721 0.912755966 0.194301069 0.570017934
      -0.107550845 -0.382425338 0.319907248 -0.463966519 0.0318463966
      -0.0223049242 0.213324323 -0.388292164 0.49679783 0.23440288
      -0.667093039 0.589349151 -0.0154741304 -0.177752733 -0.537102044
      -0.0825003386 0.382408828 0.195443094 -0.487262338 0.811703086
      -0.168656364 -0.154532656 -0.715272009 0.703868032 -0.110260271
      -0.392509073 -0.119019546 0.33716017 0.214839295 -0.688075304
      0.474392533 -0.187538847 -0.105136141 0.107611321 -0.0554219447
      -0.419082314 -0.311785787 -0.416769534 -0.498872042 -0.0160553195
      -0.46250993 -0.106892802 -0.283686161 -0.246529788 0.051567778
      0.12989369 0.0555162169 -0.339567304 0.214416474 -0.161871403
      0.213301867 -0.378041178 0.261269987 -0.138250455 -0.210353926
      0.0992304534 0.189121813 -0.0929143503 0.31586805 0.418280661
      -0.495703936 -0.236529559 0.0551040769 -0.247475281 0.0173764601
      -0.0583167747 -0.161991805 -0.0686236322 0.138023973 0.0222521853
      0.176386699 -0.0793744698 -0.235648185 0.348844141 0.393794179
      -0.301342666 -0.24668166 0.0679003745 0.00301915663 -0.104444377
      0.505249441 -0.013561504 0.2775608 -0.221009165 0.0669443458
      -0.0621230602 -0.36054638 -0.407854557 0.200763464 -0.12006928
      -0.0277810097 -0.252097726 0.42993933 -0.0878478438 0.0338857248
      0.055317115 0.0132935448 0.113493897 0.0159470551 -0.238815233
      -0.295652539 0.130960658 -0.0284490399 -0.214989096 -0.142575443
      0.342084914 -0.0665596724 -0.129052117 0.0508230329 -0.0501820743
      -0.0917480737 0.167674735 -0.111075774 0.207245961 -0.0683951303
      0.1187656 0.114339322 -0.289969444 -0.112587042 0.334275663
      0.210376412 -0.262031227 0.08187861 0.111162923 -0.120970987
      0.0140422825 0.0118688764 0.15915136 -0.021417059 0.316837341
      -0.0371136889 0.124089457 0.270862401 -0.0420264825 0.137263849
      -0.285270572 0.228951454 -0.139185563 0.00602519838 0.0530502535
      -0.128513396 0.208157763 -0.0200256463 -0.119845666 0.262255728
      0.261343539 -0.0881754085 0.105838217 -0.00860196073 0.155652091
      -0.0688162595 0.0219015926 0.0781103522 0.186049759 0.0478263311
      -0.172487289 0.0955688581 -0.00814925693 -0.0777074173
      -0.168025941 0.200907663 -0.121543013 -0.137777939 0.419282258
      -0.0393133797 0.0835006461 0.203050405 -0.229218662 0.0832545534
      -0.26045838 -0.20763652 0.0563562177 -0.0838739574 -0.198834106
      0.0803951994 0.193021804 0.0226956252 -0.000586380134 0.170958549
      0.137427524 -0.0473114476 -0.0253702048 -0.0339596719 0.0121628642
      0.090456821 -0.136054352 0.107413322 -0.0547624826 0.0652942732
      0.257315576 0.0116407322 0.0505735837 -0.187250823 0.0492724776
      -0.00149002112 -0.157129973 -0.207552925 0.240262628 -0.0587591492
      0.146476135 -0.0546635464 0.102386437 0.109116085 0.0196313653
      0.00211060024 -0.0380113646 -0.0389160067 -0.0554242656
      0.148570761 -0.155435532 -0.0711986497 -0.13363786 -0.0193809848
      0.301364005 -0.0443512127 0.0808412731 0.0449434109 0.182663053
      0.224261612 -0.129317984 0.0165435802 0.138368085 0.0869184583
      -0.0831979886 -0.0452562943 -0.0847219974 -0.0365660116
      0.0957926437 -0.0964505672 -0.00048390645 0.0647681281
      -0.0720773637 0.190806359 0.0957026184 -0.113337159 0.0571992435
      0.231966466 0.162376046 -0.155429423 -0.0677233413 -0.103351951
      0.0412418582 0.0154150957 -0.0642670542 -0.0292897988 -0.244105324
      0.0897419751 -0.121758111 0.0427811816 0.0643640235 0.0328260288
      -0.153979316 0.0507325046 -0.0222624801 0.0934337154
      -0.00037035381 0.0252704788 0.138819024 -0.0814401507
      -0.0583219379 0.0485575907 -0.0350088477 -0.0393383875
      0.0485245846 0.0414407887</_>
    <_>
      -0.338022619 2.1053648 -0.443229526 0.878943622 1.62499154
      -0.654260993 0.0715399534 1.56961656 -0.463506699 -0.12019062
      -0.388783246 -0.619101048 0.250215977 -0.594141901 0.497354388
      0.151249126 0.234579697 -0.327629387 0.668501616 0.535317004
      0.823253334 0.198460132 1.22998703 0.101840898 1.44641769
      -1.00854707 -1.35390437 0.904458106 -0.377531469 0.180842608
      -0.654848635 -0.7045331 -0.49605006 0.272797704 -0.312861174
      0.503193259 0.308962345 -0.0862316564 0.756148279 0.622188032
      -0.113522738 0.223553509 0.551523685 -0.260586947 -1.10058868
      0.401643962 -0.821208596 -0.432556778 -0.841529965 0.426435918
      0.382191062 0.242574438 -0.535805702 -0.133739576 -0.286147326
      -0.365544051 0.151015639 -0.0492480025 -0.00597111788
      -0.0945514962 0.129859671 0.151849613 0.00816824101 -0.190414786
      -0.434850484 -0.259098142 0.0423795916 0.118977197 0.138352662
      -0.148530126 -0.0603383519 -0.282265455 -0.644840479 -0.473549634
      -0.273986518 0.390564412 -0.160305947 0.442995042 -0.322270602
      -0.500629961 0.0401885249 -0.0257047806 -0.162798822 -0.544882238
      -0.0299294069 0.00660743751 -0.224652186 -0.508739173 0.18392022
      0.0949100479 0.189459786 0.663119256 0.0956746712 0.0382646881
      0.149487481 -0.251839906 -0.0258960463 0.266746044 -0.0942864493
      -0.163637817 0.43805334 0.215080962 0.00375554245 0.0299967416
      -0.0436451919 0.0505519658 -0.101076789 0.0290996674 0.250318736
      -0.0631202832 -0.0522728041 0.0386177413 -0.379897356 0.270347416
      -0.35441196 0.048602432 0.154142246 -0.145082429 -0.364943773
      -0.0822271258 -0.492597967 -0.130138308 -0.419628739 0.00479870057
      0.232951194 0.075760223 0.175489396 0.104938179 0.161620706
      0.380999863 -0.0307702329 0.160803631 0.197232351 -0.225379765
      -0.153894782 -0.280258268 -0.053561464 0.0937578753 0.151005208
      0.193500027 0.121098094 0.586725473 0.00577603234 0.0529583655
      0.4878245 0.205554485 0.299369931 0.183927178 -0.116958879
      0.120026968 -0.223796979 0.0711466298 0.144938767 0.0677189082
      0.0422986932 -0.0760577172 0.17162855 0.314357162 0.178987771
      0.0427442789 -0.175730854 0.0174173005 -0.175647706 -0.0414078273
      -0.00275134784 -0.248578832 -0.0688404292 0.371851891 0.172194734
      -0.244793162 0.389815599 0.172003105 0.455770314 -0.217224836
      -0.0389670692 -0.219356075 0.0179809909 0.130661339 -0.0855683759
      -0.253753603 0.194597542 -0.234611899 0.0985703692 0.116524465
      0.0164723787 -0.191392079 -0.102765493 0.140808091 0.188878506
      0.118735895 0.160079807 -0.268554449 0.0408502333 -0.110835798
      -0.179657236 0.222672433 0.100502998 0.186010182 0.0719292164
      0.0992554501 0.0519696809 -0.183110982 -0.17489104 0.275552094
      0.0408532396 -0.00333907665 0.0653054416 0.14709422 0.00962080527
      0.11161872 0.103498764 0.177858695 0.0349377207 0.321400166
      -0.211357236 -0.164636403 -0.0651900545 -0.151284337 -0.0854856223
      -0.0757462978 0.0278708283 0.228710145 -0.17394571 0.0587882586
      -0.223673195 0.10203705 0.0469845384 0.0251149368 0.0447593555
      -0.103435859 -0.276891381 0.128944784 0.0336808451 0.0276342947
      -0.500503898 -0.0392456464 0.00471277721 -0.0891831741 0.286236942
      -0.11295674 -0.118235178 -0.0282268859 -0.00195811479 0.0633851737
      0.162778527 0.0032334961 -0.0450092219 -0.119201317 0.206034839
      0.031183416 0.158905461 0.0177817475 0.0947458819 -0.116248786
      -0.174851194 -0.128446057 0.00981954485 -0.110835791 0.093298465
      -0.0665369183 -0.202885449 -0.172621071 -0.0851209089 0.22204718
      -0.210851327 -0.17268081 -0.0378361829 -0.0953818411 0.0748156011
      0.0824553594 0.064169459 -0.000293740362 0.340126574 -0.150947616
      -0.0916980281 0.088500455 -0.186539307 0.0963565931 0.0498727597
      0.0331878662 0.108068027 0.194209248 -0.216829881 0.0990569592
      -0.164001212 -0.0643874928 0.0124871265 -0.0746447369 -0.107731409
      0.183994547 -0.0363678485 -0.00960880797 0.0813378021 0.0465771593
      -0.0515225604 -0.11735215 0.198264495 0.393305779 0.0364932604
      0.152769029</_>
    <_>
      1.24772573 2.27870107 0.380671144 -0.172248945 -1.32955122
      -0.96090275 2.23188353 0.558897913 -0.229096293 -0.086596787
      0.785895765 0.652692318 -1.54173386 -1.40830708 -0.414901346
      1.20761764 -0.987227619 -0.815786719 0.108065121 -1.38933039
      1.08950663 0.243422866 -0.195887089 -0.376992255 0.373151451
      0.629173815 -0.828494549 0.53788358 1.08621502 -0.121160254
      0.552088976 -0.997349918 0.961394131 -0.395247817 0.3470276
      0.132497177 0.299618721 -0.223667979 -0.348330885 -0.549244046
      -0.136925787 -0.617642283 0.485916108 0.264304131 -0.833965242
      0.411809742 0.242510185 0.407334596 -0.0697136 0.0837432444
      -0.0302690174 0.0671619773 0.251439273 0.462264508 0.166776866
      0.236637652 0.104249515 0.145889401 0.00130289618 -0.201033741
      -0.322666466 -0.179721251 -0.00982493721 0.184532568 0.458614737
      -0.152481079 -0.510140121 0.21787262 -0.190235063 -0.175659627
      0.406190574 0.206317022 0.314704716 0.00760925608 0.142439798
      0.210480779 -0.297510684 -0.193238392 0.0186785311 0.0215012301
      0.0429178253 0.308570981 -0.061108537 0.257850081 -0.179523647
      0.133450583 0.0384662896 0.0359096788 -0.115378641 -0.179061413
      0.188551277 -0.180799559 -0.223329723 -0.207501411 0.14078626
      -0.133189738 -0.0113041177 -0.385619253 0.232792139 -0.235219657
      -0.178304628 -0.0357546248 -0.164739415 0.0302037708 0.0359745659
      0.178090617 0.336941928 0.0304814186 -0.0966458246 -0.0492920391
      0.161991864 -0.117531851 0.150724769 -0.172697589 0.0514457263
      -0.283761561 -0.257984698 -0.101775073 -0.245676786 0.390381575
      -0.107882142 0.120881818 0.136242837 0.0741057992 -0.0734954551
      0.259699821 0.194622844 -0.0169284772 -0.102435045 -0.0253145508
      0.134534135 0.00879926421 -0.194386452 -0.183263913 -0.202071786
      0.193143368 -0.367424697 -0.28093487 0.28467232 -0.123426914
      0.137834787 -0.17818965 -0.150927752 0.192917958 0.357446313
      0.0298629683 0.00495000463 0.255990326 0.195519164 0.076149404
      0.0655789077 -0.189136043 -0.398689806 0.119665012 0.348855257
      -0.30244413 0.0695648044 -0.132753491 0.249264687 0.0926748738
      0.00872522313 -0.0522026978 0.184653476 -0.0218897592 0.0140728895
      0.154252365 -0.198624417 0.188521862 0.423583984 -0.110375315
      -0.231952026 0.0501730889 -0.091504924 0.116897278 -0.0244159009
      0.0295185409 -0.0329458825 0.0326710381 -0.162557572 0.340972364
      0.190109774 0.144747525 -0.0267165191 0.125286371 -0.053011056
      0.171783671 0.0883840844 0.0194826927 -0.202611104 0.317440748
      -0.0396158807 -0.0092865238 -0.0186170097 -0.032630939 0.188277408
      0.144914746 -0.0839938596 0.0197834931 0.0609404966 0.0344002619
      -0.0827047154 0.0585393757 0.0568643622 0.135999516 -0.00734532485
      0.156950921 -0.0843567327 0.162870646 -0.304897606 -0.051340811
      -0.275753617 0.0814958513 0.0512778461 -0.278118134 0.187103346
      0.150823742 -0.151632622 0.201763198 -0.182929561 -0.0689461231
      0.0330360495 0.00683498848 0.099981837 0.0284276046 0.00656246208
      -0.219701171 0.0921240896 -0.0651134849 0.324276298 -0.177964434
      0.0417729691 0.0172316022 0.110027753 0.266809702 -0.055767823
      -0.0262132827 0.0319760926 -0.11940746 -0.0411832184 -0.0260358471
      -0.212044805 -0.168970048 0.237552509 0.00811848138 -0.0146576799
      -0.0096640205 -0.233954594 -0.0086434111 -0.15384607 0.086707741
      -0.0181352459 0.0543831326 0.168743074 -0.208650738 0.00166248751
      -0.171389103 -0.131132886 0.332425535 -0.0756033063 0.0670153946
      -0.107944287 0.0314426534 -0.0549549051 -0.0170438997 -0.106112756
      0.00583215384 0.130528495 -0.0884302855 -0.141978741 -0.0434371419
      -0.102795035 -0.175381601 0.102395028 0.044637952 -0.0691694319
      -0.24828209 -0.0197041072 0.17633833 0.0919869542 0.192864373
      -0.15171586 -0.035481777 0.11716789 0.0439375676 0.0381052457
      0.15668039 0.0103725148 0.0366998129 -0.14691554 0.23316963
      0.0445528477 0.00752152037 -0.119875491 0.0280654468 0.127063066
      -0.0104511706 -0.0704393908 0.12619938 0.00671996223 -0.0863665938</_>
    <_>
      -1.82958806 2.54083109 4.50622845 2.23507237 0.0103570791
      -0.526512623 -0.299433172 -0.186200425 -0.0489264876 1.18132555
      -1.01005077 -0.508272588 -0.838552892 -0.318094045 -1.71976221
      0.195053652 0.08407107 -1.67117488 1.64323783 -0.0667478815
      -0.373642176 0.670009732 1.10060966 -0.264328092 -0.827297151
      0.167889997 0.0553729534 -0.0826197341 0.201991677 -0.601883829
      -0.834623754 0.244349763 -0.148077071 0.746777296 0.194026425
      0.401410431 0.709599972 -0.0940291956 -0.154521227 -0.57265836
      -0.0917680711 -0.239204526 0.248977095 0.0596128143 0.726546288
      0.0840765238 0.145168439 -0.306443632 -0.276742488 0.555834293
      -0.578065813 0.192817181 -0.334100068 -0.768842936 0.25748086
      -0.103426956 -0.532108605 -0.315352291 -0.0727543831 -0.083351627
      -0.32443589 0.169302285 0.222672343 -0.406792611 0.252113342
      -0.380373657 0.28650707 -0.394338101 -0.433760971 -0.1003462
      -0.192325056 0.0101636443 0.153733462 0.578648448 0.781245708
      0.15697512 0.113006927 -0.232697472 0.118965529 -0.0294694882
      0.0933172032 -0.0853898525 0.212140113 -0.156305954 0.104748331
      0.419997483 0.0506965071 -0.0512505248 0.0397644266 -0.0422672629
      0.063519232 0.233533949 0.173826292 0.0492735989 -0.594706714
      0.16371645 0.353914559 -0.171640143 -0.058789067 -0.287146538
      -0.0429056771 0.0224572923 -0.0703183115 0.314783752 0.417523623
      0.257763773 -0.0652951151 0.041713234 0.0348223262 -0.245228112
      -0.155357629 0.290705949 0.234582663 -0.345648348 -0.0452950746
      0.10984116 0.255543441 0.0432043634 -0.00439990498 0.074790515
      0.242590308 0.242017254 -0.145447806 -0.325749457 0.359098434
      -0.146142155 0.00337966112 0.386606663 -0.330848128 -0.230553493
      -0.0785269216 -0.102069408 0.0633069426 -0.277244687 0.0659199283
      -0.014577141 0.262614369 0.0129981702 -0.280704618 -0.0857289732
      0.12473651 0.3344028 -0.0298139546 0.0127947815 -0.0144474329
      0.238775909 0.257723451 -0.0928598419 0.0408562236 -0.349236339
      -0.0844231844 0.0399028547 -0.257842869 0.169797495 0.126304775
      -0.0052772765 0.363686353 -0.391706318 0.0858985037 -0.10113474
      -0.0600814112 0.012216229 0.0869334266 -0.197396785 0.0652313903
      0.0673392043 -0.035497237 -0.163986459 0.541839004 0.10570842
      -0.237769604 0.115573779 0.170054883 0.146972761 -0.022123225
      -0.138615757 -0.040370822 0.145007715 -0.410958022 -0.174755901
      0.455668092 -0.119003408 -0.108732544 -0.100704961 0.126786694
      -0.148423329 0.0124219088 -0.162341028 0.166586071 0.0683891997
      -0.0925091133 0.181591734 0.121416815 -0.158885524 -0.0293933768
      0.308379143 0.0188589823 0.110032775 0.177418903 -0.0965737849
      -0.119585603 0.402751327 0.0788096935 0.0861535668 -0.000931682065
      -0.1399827 -0.245580107 0.066182673 0.14129515 0.17800495
      0.0252648983 -0.0908633247 0.038517423 0.164951906 -0.203422576
      0.0676575974 -0.00812531821 -0.213235468 0.154867545 -0.325781405
      0.133335888 0.0262797885 0.0206866674 0.0303164087 -0.0673682094
      -0.110642754 -0.174261749 -0.275573075 -0.00590321841
      -0.0762644485 0.250793874 0.0573950075 0.0245242883 0.102301344
      0.211244777 -0.117267385 0.0711562783 0.10534855 -0.111154191
      -0.0189720206 -0.0481695235 -0.0560580008 -0.10412091 -0.106052771
      -0.0143005773 0.0286589693 0.00397235015 0.0788392201 -0.103070445
      -0.272685975 0.00140886521 0.192907885 0.00174815371 -0.202734023
      -0.0785839632 0.0263494365 0.242687792 0.0355579406 -0.166553751
      -0.0151910037 0.0725439638 -0.106337711 0.0709161088 -0.240419164
      -0.105989784 0.107119083 -0.111695364 0.185922623 0.105821401
      -0.0560025796 -0.0393291228 -0.0127937719 -0.0487327836
      -0.032176692 0.149926126 0.104036137 -0.206988797 -0.0486646965
      -0.0867943242 0.0221135747 -0.112512201 0.00909386668
      0.00949812215 0.0864852294 -0.0979034528 0.138128638 -0.192331329
      -0.0293978993 0.0372433849 -0.138241366 0.0153650688 -0.0704044178
      -0.0409113429 0.127384052 0.00421151938 -0.0804935917 0.0373331457
      -0.0964340791 -0.137421295 -0.0846528113</_>
    <_>
      -1.70648634 2.07789326 -1.43435013 0.768545806 0.936655164
      0.368014008 -1.13734853 0.84065634 -1.02155852 0.953973591
      -1.27885973 1.09289038 1.39939797 -0.52610594 0.355587631
      -0.672685683 0.487553626 0.168863758 0.354681224 0.791232765
      1.57718885 -0.578228414 -0.768767297 0.170144081 0.56313777
      -0.163000599 -0.0788128152 0.158625394 0.346322328 0.725443602
      -0.336507887 -0.668385327 0.105887622 -0.205129549 -0.657895207
      -0.493063539 0.0229341332 0.10691312 0.856747448 -0.549077392
      0.11881914 -0.18867743 0.831423819 0.0552463569 -0.12665315
      0.81949079 0.113402367 -0.312476546 -0.559498489 0.358776897
      0.394992173 -0.355701476 0.988899469 -0.860221624 0.54174
      -0.322439492 -0.33725372 -0.254796177 0.190951973 0.449037075
      -0.745499194 0.01532456 0.00686885649 -0.759175956 -0.103950202
      -0.44650209 0.982749403 0.572881937 -0.0518018529 -0.438845992
      0.410138786 -0.194772109 0.122208148 0.0628971085 0.0038643796
      -0.117752045 0.205328614 -0.100307688 -0.0962435976 -0.434784532
      0.378713191 -0.0512806326 0.332663089 0.101432912 -0.315154254
      0.233361498 -0.360169441 -0.0112994313 0.535279036 0.604551136
      -0.17631641 -0.0730957016 0.296405673 0.204082847 0.311946452
      0.067112118 -0.305054188 0.0871548727 0.00653286185 0.386432678
      0.187520981 -0.852595985 -0.154559031 0.432520092 -0.471542329
      -0.107576072 -0.422413409 0.519878089 -0.247717395 -0.250105202
      -0.337136835 -0.0820677355 -0.369503915 0.363387018 -0.412216902
      0.280719221 0.139297679 -0.19876729 -0.160103723 -0.106304921
      0.369294077 -0.0364616849 0.317356259 -0.114414841 -0.0541173667
      0.148092747 0.306316733 -0.292720586 0.0743456781 -0.0206418857
      0.314193189 -0.0956389681 0.166135028 0.0895684063 -0.00980263203
      0.163902879 0.120509654 -0.138585582 -0.14808628 -0.0575180948
      0.0681874529 0.51625073 -0.255922705 -0.367229193 -0.325159758
      0.171902284 -0.102110296 -0.133198842 0.122417293 -0.0736743808
      0.0536662377 0.105782941 -0.180745289 0.358289421 -0.0878712013
      -0.161689654 -0.336224198 0.0659145415 0.00524998177 -0.10693562
      -0.274557203 0.0866927952 0.522362888 -0.154514864 -0.0174834281
      -0.0846582502 -0.322695702 -0.0981018841 -0.0679655448
      -0.114708908 0.00135446619 0.131483689 0.0319040008 0.2097563
      0.226965696 -0.0854047388 0.0726011172 -0.126934662 0.0808759704
      -0.0300547089 -0.171303019 0.00359963207 -0.276890904 0.0669797882
      -0.040460553 -0.243674487 -0.290666908 0.19149664 0.0572315641
      -0.0980621204 -0.0372750945 -0.0401466861 -0.146647066 0.468264073
      0.241681859 -0.183917478 -0.0859443918 0.0658788458 -0.0853536725
      0.115226232 0.000238268418 0.194541261 -0.147815377 0.0276722983
      -0.0312523171 -0.0874825493 -0.108561218 -0.395958424 0.088307403
      0.317479849 0.0793956444 0.0472588055 -0.0125193419 0.0628172532
      -0.230629221 -0.110101372 -0.0820264891 -0.21626845 -0.135259226
      0.0961657614 0.098049745 -0.00386610464 0.131841421 -0.228816673
      0.110392943 -0.126544029 -0.129119083 -0.233940437 -0.0570863411
      -0.297936589 -0.0715353563 -0.157623664 -0.0114215929
      -0.0777010694 0.139995918 0.165947512 0.0244154017 -0.0612040199
      0.0779932067 -0.192833155 0.120182142 -0.00890764035 0.108170927
      0.0371334665 0.124002852 0.203525946 -0.236685187 0.211862415
      -0.0354443081 0.0660582855 -0.0936818868 -0.0673634186
      -0.170481309 0.040472772 0.0971347317 0.192529246 -0.0566382296
      -0.0568192154 -0.0864714012 0.181435153 0.0616300851 0.0343140103
      -0.043648012 -0.0828378797 -0.110113576 0.0148443701 -0.115632482
      -0.0120772449 -0.186506152 0.131847173 0.320540875 0.196392238
      0.13771227 -0.0935307592 -0.0127680041 -0.248084337 -0.0140584214
      -0.00856417324 0.0741718337 -0.217342064 0.279930502 -0.183735192
      -0.179529816 0.0646635965 0.0492611341 -0.0210342258 -0.220541507
      0.163508222 -0.0138583565 0.133766845 -0.131978363 -0.188999787
      -0.0646260753 0.0237434618 0.201782703 0.172962174 0.0439574681
      0.150234401 0.13441582 -0.0792408064</_>
    <_>
      -0.437568545 0.578010857 2.8188076 -0.406271905 -1.62873042
      -0.646963954 1.06356263 0.497538984 0.329241455 0.34025225
      -1.56307554 0.563198328 0.737667263 1.63463008 -0.0643066838
      -0.543417513 -0.545258999 0.576838613 -0.0298363455 0.123250574
      0.677381516 0.264215201 -0.162181422 -1.34533596 0.494852871
      1.99170911 -0.446192086 -0.664027452 0.241679132 -0.0422069803
      0.651482582 -0.642962039 -0.285670936 -0.71380198 -0.587044477
      0.568856299 0.698746443 -0.130145386 0.31614691 -0.09820389
      0.393329889 0.32772693 -0.46501255 -0.157588765 0.26638332
      0.338326931 -0.132964179 0.94172436 -0.0746052116 -0.0589681119
      0.128732964 0.888139248 0.636660218 0.405336082 -0.144091085
      -0.485489547 0.397187233 0.104445711 0.282755345 -0.558946252
      0.29383266 -0.348736614 0.0583582707 -0.566387057 -0.0864480138
      0.393880725 -0.533428073 -0.25695467 0.266534537 0.0570678189
      -0.323388308 -0.193255395 -0.357509106 -0.128839418 0.163548633
      0.167841017 0.416137576 -0.334457368 0.3776007 0.463653713
      0.195871681 -0.703876972 -0.316850245 0.194867998 -0.0392595679
      -0.277164072 0.440220267 -0.0233512223 0.518764615 -0.0935990587
      0.397587389 -0.168573931 0.686194181 -0.271456569 -0.694375038
      -0.0340834409 0.160812154 0.0440967977 -0.363149673 -0.0152970208
      -0.210735023 -0.299238563 -0.0214975681 0.78451848 -0.177438393
      -0.302988142 0.360383332 -0.0224579163 0.0891666263 -0.232972071
      0.101291783 0.297303855 0.0727314502 0.148548424 -0.227129266
      0.235556245 -0.133104831 0.441635996 0.0104641113 0.134871334
      0.154181659 0.299786299 0.135111719 -0.230292395 -0.0273374505
      0.590564489 -0.125606582 -0.136572853 -0.214023337 -0.0797964483
      0.225024566 -0.307714075 -0.110251024 0.0782226473 0.0149596641
      -0.207619265 0.214054823 -0.00825535413 -0.100730047 0.0872036442
      -0.457606941 -0.110594906 0.146864519 0.266313136 0.173988476
      -0.244844496 -0.0100618945 0.279525101 0.161167592 -0.108891316
      -0.0572472438 0.260221511 0.299161762 0.226553112 0.200026214
      -0.0960946605 0.150052309 -0.447916359 -0.0175192263 0.183849543
      0.30332759 0.058933042 -0.14888078 0.352947026 -0.0411664359
      0.132297844 -0.139183745 0.0193247236 -0.00533004059 0.173509672
      -0.041024588 0.0692145973 0.0465102568 0.558914721 -0.0630604625
      -0.515499592 -0.267279804 0.149010077 0.00504131429 -0.200645894
      -0.216265365 -0.126781806 -0.134645581 0.113320552 -0.0546176098
      -0.426390171 -0.00509740179 -0.0584511869 -0.19475159 -0.123098284
      0.129209816 0.0885440558 0.385192424 0.151284605 0.0984358788
      -0.0973008499 0.0302094389 -0.0716668889 -0.00139430515
      0.183937907 -0.040740706 0.100820817 -0.167290509 -0.0720586404
      -0.0854112655 -0.236287132 -0.0176037122 -0.0683996454
      0.0689748079 -0.0545663349 -0.187516674 0.0202771351 -0.13308762
      -0.404965669 0.0290440619 -0.00841329712 -0.119348682 -0.172494337
      -0.220232755 -0.184339225 -0.138961568 -0.249077573 -0.0585730746
      0.163509965 -0.0244644806 0.135922194 -0.0551042743 -0.213333443
      -0.177675247 0.291246742 0.135369122 0.223328531 0.0984189957
      -0.49475354 0.0332281217 0.0693356991 0.0639315993 -0.140841618
      0.0270952992 0.0203050021 -0.0742742643 -0.0495127141
      -0.00167767226 -0.0832306072 -0.00266057346 0.0813365206
      0.00467143161 -0.0195119884 0.032372687 0.223248318 0.0685169622
      -0.082247369 -0.189506322 -0.117999569 -0.143272772 -0.0197999738
      0.392502636 -0.0707956329 0.121239364 0.127081767 0.134256646
      0.121018507 -0.254677445 -0.353796035 -0.294782162 -0.135541603
      0.0805370435 0.182965741 -0.211962253 -0.0740284249 0.186737239
      -0.100263834 0.0655300766 0.213364795 -0.0224369746 -0.00227754191
      0.0717451051 0.0427410752 0.0353597887 -0.309563369 -0.0693304613
      -0.0801765174 0.0768474713 0.165352553 -0.00182493206 0.0150210308
      0.0298088063 -0.0855808929 -0.120248303 -0.116799638 0.0588877574
      0.141025245 0.158652708 0.0462380983 0.350643218 -0.201420695
      0.00695677195 0.0479120463 0.0298449453 0.158776581</_>
    <_>
      -0.344408602 -2.35318708 2.0998404 -1.09433603 1.02598894
      0.000711757399 1.73327804 0.740974486 1.13250494 -0.147218183
      0.69107461 -0.239372283 0.61216718 -0.852533102 -0.155641884
      1.02686 -0.0773127675 0.198270321 0.490184814 0.559363604
      -0.273673832 -0.497938931 -0.279788822 0.239568695 -0.0984456614
      -0.254772007 -0.0655730739 -0.400488496 -0.199949682 -0.339751184
      0.161580861 0.386976361 -0.0637086928 -0.491643488 -0.0840644762
      -0.483498186 -0.399035186 0.141447261 -0.368934929 0.193351507
      -0.310968637 0.292539984 0.244312197 0.279048711 0.244230345
      -0.0334548317 0.040130306 -0.329708636 0.227370203 -0.335304141
      -0.298117161 0.0597304329 -0.351169616 0.276757002 -0.0523963049
      -0.473770589 -0.0217026286 -0.178010449 -0.125325337 0.0844410807
      0.453996599 -0.0642318279 -0.271910787 -0.538112879 0.0258661564
      0.0802467987 -0.192560136 -0.180125266 -0.102373049 -0.15127489
      -0.244670585 0.417607784 0.000796951586 0.0734771267 0.223275065
      0.0887601227 -0.218921527 0.105608113 0.350577772 0.150281772
      0.366963118 -0.0720655918 0.106340684 -0.300039917 -0.222628236
      -0.166189373 -0.200485304 0.0414066203 -0.00775511842
      -0.0395539887 -0.0944656059 -0.0175310764 0.335859716 0.0886085406
      -0.116666369 -0.227700412 0.0176492687 0.226323336 -0.203451738
      -0.0563418232 -0.289443642 -0.0108071389 0.0515277013 0.0106686577
      0.02813581 -0.129356116 -0.275268793 -0.0942610949 -0.0679909512
      0.101928204 -0.190729424 -0.0843294188 -0.108254582 -0.084017165
      -0.150667429 -0.332117528 0.115613438 0.0353358872 -0.280612886
      0.0844024867 0.0397301838 0.0425886139 -0.00313892541 -0.202485338
      -0.0919962823 -0.129587829 -0.329494268 -0.177734718 0.0684330836
      -0.0423696451 0.107798576 -0.146458939 0.292454243 0.0798899308
      -0.168468297 -0.0350194573 0.266560614 -0.1349103 0.230666623
      0.226406127 0.11545977 -0.23580125 0.112803034 0.11715506
      -0.0533184372 0.0832750499 -0.224863559 0.0635268688 0.0352039002
      0.0355899781 -0.0533240922 -0.0523783825 0.0183061045 0.127084747
      -0.0422117412 -0.264451057 0.106855132 -0.127212688 -0.0556175597
      -0.0318881497 0.0621418431 0.259601176 -0.0339890271 -0.0647797585
      -0.100518011 0.0456586294 -0.216459364 0.0198812727 -0.11893785
      0.00373163051 0.114763953 0.0257837251 0.022029072 -0.0983104408
      0.160750076 0.0368376747 0.0444272123 -0.0644041523 -0.0800135583
      0.104093172 -0.0527887568 -0.136860982 0.0669729486 0.00217559864
      0.177358717 0.00125004095 -0.153216988 0.0370221958 0.061153844
      -0.0866633579 -0.240857542 -0.130309388 0.113831386 0.300251782
      -0.140453905 -0.0430822037 0.0884640142 -0.114729054 0.117355488
      -0.0481502526 -0.219055638 0.0382274128 0.154116884 -0.131652787
      -0.0671077743 -0.0906336382 0.218849182 0.10916809 -0.0916094333
      0.0434871726 0.136621743 0.0159503594 0.216662139 0.0798553079
      -0.24388957 0.0211862046 0.217656046 0.0260099843 0.0722017139
      0.189305916 -0.120596707 0.0143872714 -0.106189571 -0.196487904
      -0.297521174 -0.101636752 -0.000400573335 -0.00802360941
      -0.239270911 -0.262571543 0.111962736 -0.0892954245 0.111536078
      -0.180476949 0.0886629596 -0.0650758296 0.0463600159 -0.182816327
      0.163988858 0.025129769 0.0144832581 -0.156233221 0.020685507
      -0.0975469649 -0.0976313427 0.0830164552 0.0518921018 0.122359164
      -0.184620589 -0.0421977416 0.0411925241 -0.0659810901
      -0.0554729737 0.221638188 -0.148687437 0.0717906058 -0.00057962659
      -0.147762388 -0.0594708845 0.0261352118 -0.0734077394 -0.252123564
      -0.0431451574 0.0782944784 0.0831857324 0.194847003 0.0475285612
      0.127825603 -0.0422894694 0.155715808 0.0570846386 -0.0585439876
      -0.0154970074 0.267695308 0.108838685 0.174948856 -0.076333411
      0.163129106 -0.143701702 0.0387707539 0.00862864219 -0.123437226
      0.00786601659 -0.0191639513 0.226611108 -0.0112107098 0.0714387596
      0.172043577 0.0733764544 -0.0488736331 -0.0689434856 -0.0557429045
      0.125722945 0.215860039 0.144399777 -0.0126119414 0.134216279
      -0.121161282 -0.0946503207 -0.187239662</_>
    <_>
      -1.83265483 3.61402154 2.88134789 1.12311399 0.171307266
      -0.217316508 -0.182416156 -0.752867639 0.667989016 -0.916379452
      -0.250569344 -0.405188918 -1.09757972 0.828135133 -0.305696607
      1.85899425 -0.736455202 -1.395836 -0.0576270074 -0.138468668
      0.549114466 -0.542944074 -0.228707522 0.0167369526 0.361712366
      -0.329128414 0.518083692 -0.0121053532 0.0693927184 -0.358001053
      0.246657774 -0.00624652533 -0.429865658 0.225125879 -0.359626561
      -0.422986329 0.487577617 0.252843559 0.616308212 0.0480687208
      0.0992159471 -0.193747059 0.175257877 -0.166199729 0.298854351
      0.332337081 -0.409914672 0.0200631768 0.318917722 -0.214533851
      -0.0650329813 -0.0226646233 0.615975022 0.0890488401 -0.089797534
      -0.313949823 -0.165306956 0.284315228 -0.3327187 -0.0709607899
      0.364856184 0.171998352 0.545870185 -0.073460117 -0.0270917173
      0.290114313 -0.58661294 -0.167290986 0.617311954 0.323230475
      -0.334650904 0.31436044 0.212615103 -0.427059889 0.0995446444
      -0.399797469 0.740133107 0.428612053 0.133919194 -0.0385178477
      -0.267259449 0.618926048 0.353658557 -0.202474043 -0.0828483179
      -0.341123402 0.262531698 -0.081648156 -0.127859235 0.0354176201
      0.453958005 0.240637049 0.234393075 0.192392677 -0.033634197
      0.0362336636 -0.0162182972 -0.0298319403 0.457508981 0.107695125
      -0.129710466 -0.0932512507 -0.254970998 -0.0281027276 0.312933832
      -0.263952345 0.133394212 0.202620491 -0.224196836 0.019282477
      0.134162545 -0.133281514 0.114957161 0.702500403 -0.249040335
      -0.39428851 0.229931638 -0.00499018934 -0.516449153 0.0934048668
      -0.183836445 -0.484047413 0.333975554 -0.0670743138 0.14259772
      -0.318850935 0.00160936243 0.317392468 0.20019491 0.220028847
      0.0445333235 -0.476429492 -0.283655435 -0.313779682 0.206060201
      -0.038348943 0.156467974 -0.0768308565 0.172222242 0.0763577446
      0.349359661 -0.0106666433 -0.194127306 0.416808009 -0.0541287847
      -0.0158252511 -0.101981074 0.194352806 0.0526551381 -0.0865164325
      -0.383642167 0.116332419 -0.0562186949 0.0780633539 0.169634551
      0.138816297 -0.475716859 -0.138877735 0.0857671425 0.168246821
      0.0856845304 0.182618454 -0.0666807964 -0.0546040349 0.107455842
      0.197211578 0.318232268 0.255563885 0.0880720764 -0.0728948638
      -0.0370670855 -0.0716436952 -0.0214069653 -0.306155264 -0.3787857
      0.0547879301 -0.177141637 -0.108394064 -0.145938903 0.0761001259
      -0.206749424 0.110590175 0.27505219 -0.0294318292 -0.140259445
      -0.385922074 0.182208538 -0.107330829 -0.0521033257 0.0878502429
      -0.332694352 0.0104842931 -0.123665817 0.0383343436 0.290266752
      0.00858729705 -0.0905789956 0.0400958769 -0.0488654412
      -0.147953779 -0.345072031 0.0289903246 0.168987855 -0.0946741998
      -0.115615413 0.263466358 0.0109790629 0.206497729 -0.107738987
      -0.0716137141 0.0743348151 0.0479361638 0.0351297781 -0.168825358
      -0.113154218 -0.0871833041 -0.200101078 -0.178005666 0.127907038
      0.0364670642 0.146375522 0.0974692777 0.00337558566 -0.384954125
      -0.0355130546 -0.113023862 0.0681669116 0.0234598368 0.0548974723
      -0.271964818 0.285483301 -0.136728868 -0.0527212881 -0.0197964609
      0.0127764279 -0.0755606219 0.017239714 -0.157352626 -0.247992858
      -0.040008802 -0.0144619616 0.205991596 0.423057854 -0.250395626
      -0.118554279 0.0152354846 -0.253659099 -0.0680488721 0.159762517
      0.149011925 0.0171091706 -0.158925414 0.0558766276 -0.211999014
      0.091138348 -0.202403218 -0.0817514807 -0.265418798 0.0555994883
      0.0550462268 0.0600152388 0.0841338858 -0.029861141 -0.0802467316
      0.0466282926 0.140344441 -0.0436741151 0.0840973631 0.263685822
      0.00384298898 0.324901938 -0.125527233 -0.148011491 -0.136191845
      -0.107368834 -0.238603503 0.125453323 0.15417704 -0.156349033
      0.0176447239 -0.210815072 0.0202597249 0.00586142484 0.108830638
      0.112828113 -0.0892332569 -0.0620965846 0.070739381 0.198908463
      0.0786029026 0.0303683858 -0.017984286 -0.0114278989 0.203907087
      0.118020244 0.192934081 -0.189890698 -0.151346698 0.0658125728
      -0.11280141</_>
    <_>
      -0.95365268 2.79521585 1.11938095 1.87223101 -1.32436848
      1.04953718 2.58730865 -0.021903703 0.673561633 -0.484983385
      0.132942498 1.13607562 -0.35635832 0.949207962 -0.149639145
      1.12329328 0.074795194 0.617382109 0.592021227 -0.387041926
      -0.745009184 1.05014348 -0.926106513 -0.393697023 0.113801204
      0.61342001 -0.450158805 -0.248228177 0.385069668 0.0231695194
      0.223546162 0.182549879 0.373129994 -0.0895251706 0.604096889
      -0.253637403 -0.528439701 -0.139977813 0.268929541 -0.585512578
      0.324150324 0.54263854 -0.0568213724 -0.119386122 0.702090979
      0.238893464 -0.630580008 -0.683872819 0.502181113 0.316935003
      -0.102513686 -0.430844277 -0.199015409 0.235124126 -0.0477670692
      -0.284865618 -0.0945395529 0.40190497 -0.165615886 0.223110795
      -0.259225965 -0.208836034 0.524562836 0.728117168 -0.370848179
      -0.109036259 -0.122942977 0.0890920758 -0.0617083795 0.147647262
      -0.552330971 -0.427268445 -0.175873771 -0.161218062 -0.34496662
      0.31795153 -0.0599337742 0.0756514743 0.205134019 -0.309684604
      0.132604077 0.0834453106 0.287842631 -0.166482762 0.203375891
      0.1640701 -0.0645048097 0.145947844 -0.100392818 0.267628312
      0.142613232 0.187278673 0.11613103 -0.625076056 0.243145987
      -0.015975371 -0.235695392 -0.0562560968 -0.309103847 -0.17186141
      -0.281206131 0.0888260901 0.351707518 -0.133388504 -0.131283298
      -0.237005517 -0.152527019 0.291896641 -0.324080408 -0.10161496
      -0.104321264 -0.0299262181 0.275606066 0.071372509 0.122517556
      -0.184700221 0.0851186588 -0.0861086249 0.06824366 -0.221531868
      0.10762915 -0.0141369775 0.164980814 0.0181424357 -0.254783511
      -0.163819894 0.0751614794 -0.181937367 0.264120102 0.0773868784
      -0.181888551 -0.0363552347 0.122613899 -0.241237432 0.144502163
      0.00195507566 -0.189131334 0.394237906 -0.0850017592 -0.101823822
      -0.0430876985 0.160877779 0.206762508 0.0114229945 -0.0783118457
      -0.205755174 -0.125904113 0.173048019 -0.0249540266 -0.0861656368
      0.312224865 -0.0867641047 0.0666463375 -0.0416666977 0.23283343
      0.314212024 0.0623988323 0.0578428544 0.00741847977 0.0372811183
      0.067946583 -0.0547272116 -0.0629378408 -0.00586617645 0.16311422
      0.0774174333 0.0989973992 -0.0158993695 0.0916347951 -0.394583642
      0.213322014 0.0372531898 0.053576339 -0.0582385287 0.305599809
      -0.156959981 0.0333439 0.0215152092 -0.0318357721 -0.264784366
      0.0423664451 0.0601754934 -0.121212691 0.115997769 -0.168097124
      -0.0452424288 -0.0755487457 0.1516321 -0.0869114995 -0.0997797474
      0.0137665616 0.0586027429 0.0715459287 0.189346015 0.00564968074
      -0.104367249 -0.0655113757 -0.335977465 0.0347309709 -0.0146140819
      -0.09331806 -0.0453105904 -0.204046249 0.0598698035 0.150980309
      -0.0519691259 -0.162497595 -0.0338163264 -0.0609377138
      -0.0730526149 0.171540588 0.0507668741 0.141771868 -0.013529473
      -0.068526499 -0.203664184 0.0670343116 0.0926860869 0.141668275
      -0.00289748656 0.0982987061 -0.0556533486 0.0974735245
      -0.0899570733 0.18135114 0.278342336 -0.10256514 0.196063012
      0.0603068396 0.0747483894 -0.0574439839 -0.0711743534 0.023246387
      -0.00992191769 -0.083018817 0.0996234715 0.178348646 -0.0516022854
      -0.0812721923 0.137693018 -0.0989840925 -0.159708947
      -0.00136712042 0.0229015406 -0.116589248 0.104530998 0.0209035575
      0.062886633 0.130077258 -0.0403419547 -0.107669294 0.141964361
      -0.0312634744 0.0877718851 0.0872197598 -0.0133280186 0.0116448598
      -0.0967043415 -0.127933934 -0.0228391439 0.0317905471 0.144379944
      0.0438510738 -0.188079268 -0.17790018 -0.00178608834 -0.152103722
      0.252845258 0.0381934084 0.12137752 -0.129431129 0.109197788
      0.155505836 0.202522919 0.0832890868 0.00610079709 -0.0745430812
      0.0808278546 0.176716685 0.0961823016 0.116233096 -0.128241718
      -0.00777946133 -0.0467581488 -0.0784531161 -0.0323584974
      0.0223517474 0.118384957 -0.00521574682 -0.0989569277 0.330345422
      0.126524657 0.1305511 0.0105055664 -0.00799778104 -0.146085083
      -0.142006546 -0.0174486712 0.0613223426 -0.12349543</_>
    <_>
      3.05539131 1.05772412 0.902421355 -1.18451059 -0.245444715
      -0.948295236 -1.29444921 -0.412369221 -0.245390296 0.453527123
      -1.60628259 1.41852784 0.335663229 -1.0195303 -1.00699365
      -0.381536365 0.0604123808 -0.55832082 0.480041146 -0.529916227
      0.783326268 0.645558476 -0.322536945 -0.937198162 0.763714314
      -0.257022411 -0.223001465 1.09396315 0.152282149 0.46364522
      -0.796965063 -0.178788826 -0.889840305 -0.285696745 -0.208441898
      0.86858809 0.412581056 -0.187494457 -0.703985512 0.955124915
      0.0578387007 0.111126058 -0.0969610587 0.392026216 -0.725355983
      0.207286686 0.22471863 -0.602517843 0.0143726775 -0.30139029
      0.414311796 0.646743 -0.208287284 0.237414047 0.864406466
      -0.180447832 -0.982074857 0.00819926802 0.409788013 0.155694857
      0.214209765 -0.446892679 -0.374029577 0.536480188 0.223166317
      0.311416954 -0.979481578 -0.318333894 0.185277849 -0.560531616
      -0.318234861 0.356562197 -0.391638428 0.409856737 -0.449837387
      0.669645548 0.549033761 0.132805765 -0.0219277535 0.0302510355
      -0.481514901 -0.173584342 -0.493626714 -0.107172549 0.00744931214
      0.277053207 0.18917726 -0.301550746 0.36552909 -0.255765766
      0.89366132 0.187696487 0.0477036349 -0.329150558 -0.524331927
      -0.123868458 0.0199606027 0.0265629627 0.272168994 0.177033439
      0.43597424 -0.357204199 -0.712857604 0.198540583 -0.088996388
      -0.75241971 0.253203303 0.0866364464 -0.0483704507 -0.503994584
      -0.48759377 -0.298900396 -0.0825024173 0.201417103 -0.0150228105
      -0.329146773 0.426913172 -0.166295215 0.333365858 0.261285692
      -0.317550868 0.188940495 0.469413936 -0.150997251 0.0681763291
      0.0949182659 -0.0530879982 -0.0199532211 -0.111018799 0.110839806
      -0.768535852 -0.410505444 -0.411571354 -0.178248823 0.354346722
      -0.082672596 0.0772977322 0.106197819 0.196699068 0.143570721
      -0.257379949 -0.402176797 -0.499550492 -0.0335780717 0.415018171
      0.317613035 0.27683273 0.329574972 0.0998289734 -0.170788988
      0.30460161 -0.609167755 0.280102581 -0.165723354 -0.0501477867
      0.00961257983 0.227475807 0.112969995 0.33859688 -0.341563702
      -0.227701873 -0.0295245927 0.474890709 0.0289172884 -0.614132285
      -0.0317063257 -0.141832232 -0.824450791 0.0949543044 -0.185459912
      -0.37095356 0.130842999 -0.464786798 -0.206954941 -0.375425726
      -0.220839709 0.29475227 -0.336654752 0.399321288 0.0229316484
      0.109684303 0.551155806 -0.0575947762 -0.225274503 -0.400553763
      0.198501155 0.280981153 -0.245125294 -0.397850871 0.0995271206
